<PMML xmlns:xsi="http://www.w3.org/2001/XMLSchema-instance" version="4.2" xmlns="http://www.dmg.org/PMML-4_0">
  <Header description="PLS Random Forest Model"></Header>
  <DataDictionary numberOfFields="316">
    <DataField dataType="double" optype="continuous" name="FeatureTermOrderHistory"/>
    <DataField dataType="double" optype="continuous" name="CloudTechnologies_SoftwareBasic_One"/>
    <DataField dataType="double" optype="continuous" name="BusinessTechnologiesWebMaster"/>
    <DataField dataType="double" optype="continuous" name="SemrushOrganicTraffic"/>
    <DataField dataType="double" optype="continuous" name="CloudTechnologies_CRM_Two"/>
    <DataField dataType="double" optype="continuous" name="FeatureJavaScriptCart"/>
    <DataField dataType="double" optype="continuous" name="ExperianCreditRating"/>
    <DataField dataType="double" optype="continuous" name="AssetsStartOfYear"/>
    <DataField dataType="double" optype="continuous" name="FeatureTermCreateAccount"/>
    <DataField dataType="double" optype="continuous" name="CloudTechnologies_Philanthropic"/>
    <DataField dataType="double" optype="continuous" name="BusinessECommerceSite"/>
    <DataField dataType="double" optype="continuous" name="CloudTechnologies_SustainabilityGreenEnterprise"/>
    <DataField dataType="double" optype="continuous" name="FeatureJavaScriptStore"/>
    <DataField dataType="double" optype="continuous" name="CloudTechnologies_RemoteComputerServerSolutions"/>
    <DataField dataType="double" optype="continuous" name="CloudTechnologies_WebPortalTechnology"/>
    <DataField dataType="double" optype="continuous" name="BusinessEstimatedEmployees"/>
    <DataField dataType="double" optype="continuous" name="CloudTechnologies_DataManagementStorageHardware"/>
    <DataField dataType="double" optype="continuous" name="FeatureTermShop"/>
    <DataField dataType="double" optype="continuous" name="AlexaUSUsers"/>
    <DataField dataType="double" optype="continuous" name="FeatureTermReview"/>
    <DataField dataType="double" optype="continuous" name="CloudTechnologies_ChangeManagement"/>
    <DataField dataType="double" optype="continuous" name="CloudTechnologies_GRC"/>
    <DataField dataType="double" optype="continuous" name="SemrushAdwordsTraffic"/>
    <DataField dataType="double" optype="continuous" name="AlexaAUPageViews"/>
    <DataField dataType="double" optype="continuous" name="BusinessTechnologiesSeoHeaders"/>
    <DataField dataType="double" optype="continuous" name="CloudTechnologies_ITGovernance_Two"/>
    <DataField dataType="double" optype="continuous" name="FeatureTermBargain"/>
    <DataField dataType="double" optype="continuous" name="CloudTechnologies_ServiceFieldSupportManagement"/>
    <DataField dataType="double" optype="continuous" name="CloudTechnologies_Procurement"/>
    <DataField dataType="double" optype="continuous" name="CloudTechnologies_VirtualizationServerDataCenter"/>
    <DataField dataType="double" optype="continuous" name="CloudTechnologies_DataCenterSolutions_Two"/>
    <DataField dataType="double" optype="continuous" name="AlexaReachRank"/>
    <DataField dataType="double" optype="continuous" name="FeatureTermReturnPolicy"/>
    <DataField dataType="double" optype="continuous" name="BusinessTechnologiesServer"/>
    <DataField dataType="double" optype="continuous" name="FeatureTermRetail"/>
    <DataField dataType="double" optype="continuous" name="FeatureTermSale"/>
    <DataField dataType="double" optype="continuous" name="CloudTechnologies_ServerTechnologiesSoftware"/>
    <DataField dataType="double" optype="continuous" name="FeatureTermWishList"/>
    <DataField dataType="double" optype="continuous" name="FundingStage"/>
    <DataField dataType="double" optype="continuous" name="FundingAmount"/>
    <DataField dataType="double" optype="continuous" name="BusinessTechnologiesNs"/>
    <DataField dataType="double" optype="continuous" name="BusinessSocialPresence"/>
    <DataField dataType="double" optype="continuous" name="CloudTechnologies_ServerTechnologiesHardware"/>
    <DataField dataType="double" optype="continuous" name="LICompanies_Source_IsMatched"/>
    <DataField dataType="double" optype="continuous" name="FeatureGlobalProduct"/>
    <DataField dataType="double" optype="continuous" name="FeatureTermCustomerService"/>
    <DataField dataType="double" optype="continuous" name="CloudTechnologies_HelpDeskManagement"/>
    <DataField dataType="double" optype="continuous" name="FeatureTermShippingPolicy"/>
    <DataField dataType="double" optype="continuous" name="FeatureJavaScriptBag"/>
    <DataField dataType="double" optype="continuous" name="CloudTechnologies_PPM"/>
    <DataField dataType="double" optype="continuous" name="HPANumPages"/>
    <DataField dataType="double" optype="continuous" name="LE_Jobs_Source_IsMatched"/>
    <DataField dataType="double" optype="continuous" name="CloudTechnologies_CloudService_One"/>
    <DataField dataType="double" optype="continuous" name="AlexaUSRank"/>
    <DataField dataType="double" optype="continuous" name="ModelAction"/>
    <DataField dataType="double" optype="continuous" name="CloudTechnologies_NetworkComputing_One"/>
    <DataField dataType="double" optype="continuous" name="DisposableEmail"/>
    <DataField dataType="double" optype="continuous" name="GovernmentContracts_MostRecent_IsMatched"/>
    <DataField dataType="double" optype="continuous" name="LE_Crunchbase_Source_IsMatched"/>
    <DataField dataType="double" optype="continuous" name="FeatureGlobalBag"/>
    <DataField dataType="double" optype="continuous" name="FeatureTermOrderStatus"/>
    <DataField dataType="double" optype="continuous" name="JobsRecentJobs"/>
    <DataField dataType="double" optype="continuous" name="FeatureInputValueAddToCart"/>
    <DataField dataType="double" optype="continuous" name="CloudTechnologies_AutomatedProcessWorkflowSystems"/>
    <DataField dataType="double" optype="continuous" name="UCCFilingsPresent"/>
    <DataField dataType="double" optype="continuous" name="CloudTechnologies_CloudInfrastructureComputing"/>
    <DataField dataType="double" optype="continuous" name="CloudTechnologies_CommTech_Two"/>
    <DataField dataType="double" optype="continuous" name="BusinessTechnologiesSocialMediaPresence"/>
    <DataField dataType="double" optype="continuous" name="CloudTechnologies_RealEstate"/>
    <DataField dataType="double" optype="continuous" name="FeatureGlobalStore"/>
    <DataField dataType="double" optype="continuous" name="CloudTechnologies_WCMS"/>
    <DataField dataType="double" optype="continuous" name="BusinessTechnologiesParked"/>
    <DataField dataType="double" optype="continuous" name="CloudTechnologies_LegalProfessionalServices"/>
    <DataField dataType="double" optype="continuous" name="FeatureNumDocumentsFetched"/>
    <DataField dataType="double" optype="continuous" name="CloudTechnologies_VerticalMarkets_Two"/>
    <DataField dataType="double" optype="continuous" name="FeatureRefSrcStore"/>
    <DataField dataType="double" optype="continuous" name="CloudTechnologies_ITInfrastructureOperations"/>
    <DataField dataType="double" optype="continuous" name="CloudTechnologies_TravelandExpenseManagement"/>
    <DataField dataType="double" optype="continuous" name="CloudTechnologies_ProjectMgnt_Two"/>
    <DataField dataType="double" optype="continuous" name="CloudTechnologies_Hypervisor"/>
    <DataField dataType="double" optype="continuous" name="ExperianParent_Source_IsMatched"/>
    <DataField dataType="double" optype="continuous" name="CloudTechnologies_SystemAnalyticsMonitoring"/>
    <DataField dataType="double" optype="continuous" name="BusinessTechnologiesMapping"/>
    <DataField dataType="double" optype="continuous" name="CloudTechnologies_SRM"/>
    <DataField dataType="double" optype="continuous" name="BuiltWith_Pivoted_Source_IsMatched"/>
    <DataField dataType="double" optype="continuous" name="UCCFilings"/>
    <DataField dataType="double" optype="continuous" name="LeadSource"/>
    <DataField dataType="double" optype="continuous" name="FeatureTermAddItem"/>
    <DataField dataType="double" optype="continuous" name="CloudTechnologies_DatabaseManagementSoftware"/>
    <DataField dataType="double" optype="continuous" name="CloudTechnologies_PLM"/>
    <DataField dataType="double" optype="continuous" name="DerogatoryIndicator"/>
    <DataField dataType="double" optype="continuous" name="FiftyFiveHundred_Main_Source_IsMatched"/>
    <DataField dataType="double" optype="continuous" name="FeatureJavaScriptShop"/>
    <DataField dataType="double" optype="continuous" name="CloudTechnologies_VisualizationSoftware"/>
    <DataField dataType="double" optype="continuous" name="FeatureJavaScriptBasket"/>
    <DataField dataType="double" optype="continuous" name="CloudTechnologies_ProductivitySltns_One"/>
    <DataField dataType="double" optype="continuous" name="CloudTechnologies_MarketingPerfMgmt_One"/>
    <DataField dataType="double" optype="continuous" name="Feature_Pivoted_Source_IsMatched"/>
    <DataField dataType="double" optype="continuous" name="CloudTechnologies_WebOrntdArch_Two"/>
    <DataField dataType="double" optype="continuous" name="CloudTechnologies_VirtualizationAppDesktop"/>
    <DataField dataType="double" optype="continuous" name="AlexaViewsPerMillion"/>
    <DataField dataType="double" optype="continuous" name="FeatureRefSrcBag"/>
    <DataField dataType="double" optype="continuous" name="SemrushOrganicKeywords"/>
    <DataField dataType="double" optype="continuous" name="AnnualRevenue"/>
    <DataField dataType="double" optype="continuous" name="CloudTechnologies_CRM_One"/>
    <DataField dataType="double" optype="continuous" name="CloudTechnologies_BPM"/>
    <DataField dataType="double" optype="continuous" name="FeatureTermShippingAddress"/>
    <DataField dataType="double" optype="continuous" name="BusinessTechnologiesFramework"/>
    <DataField dataType="double" optype="continuous" name="AlexaRank"/>
    <DataField dataType="double" optype="continuous" name="BusinessTechnologiesAnalytics"/>
    <DataField dataType="double" optype="continuous" name="FeatureTermBillingAddress"/>
    <DataField dataType="double" optype="continuous" name="CloudTechnologies_EBS"/>
    <DataField dataType="double" optype="continuous" name="FiftyFiveHundred_smallFirms_Source_IsMatched"/>
    <DataField dataType="double" optype="continuous" name="CloudTechnologies_AssetPerformanceManagement"/>
    <DataField dataType="double" optype="continuous" name="AlexaCAUsers"/>
    <DataField dataType="double" optype="continuous" name="CloudTechnologies_HardwareOther"/>
    <DataField dataType="double" optype="continuous" name="FeatureTermBuy"/>
    <DataField dataType="double" optype="continuous" name="CloudTechnologies_ManufacturingEngineering"/>
    <DataField dataType="double" optype="continuous" name="FeatureTermSecureOrder"/>
    <DataField dataType="double" optype="continuous" name="CloudTechnologies_EnterpriseContent_Two"/>
    <DataField dataType="double" optype="continuous" name="CloudTechnologies_WebOrntdArch_One"/>
    <DataField dataType="double" optype="continuous" name="CloudTechnologies_AcademicEduMgmtSoftware"/>
    <DataField dataType="double" optype="continuous" name="FeatureTermAddToCart"/>
    <DataField dataType="double" optype="continuous" name="PercentileModel"/>
    <DataField dataType="double" optype="continuous" name="CloudTechnologies_MobileEnterpriseManagement"/>
    <DataField dataType="double" optype="continuous" name="CloudTechnologies_CRM"/>
    <DataField dataType="double" optype="continuous" name="CloudTechnologies_InventoryManagement"/>
    <DataField dataType="double" optype="continuous" name="CloudTechnologies_ECM"/>
    <DataField dataType="double" optype="continuous" name="Facebook_Likes"/>
    <DataField dataType="double" optype="continuous" name="BusinessTechnologiesCdn"/>
    <DataField dataType="double" optype="continuous" name="CloudTechnologies_SoftwareOther"/>
    <DataField dataType="double" optype="continuous" name="BusinessTechnologiesMarketingAutomation"/>
    <DataField dataType="double" optype="continuous" name="HGData_Pivoted_Source_IsMatched"/>
    <DataField dataType="double" optype="continuous" name="CloudTechnologies_EDA"/>
    <DataField dataType="double" optype="continuous" name="CloudTechnologies_HardwareBasic_Two"/>
    <DataField dataType="double" optype="continuous" name="CloudTechnologies_EDI"/>
    <DataField dataType="double" optype="continuous" name="BusinessTechnologiesOpenSourceAdoption"/>
    <DataField dataType="double" optype="continuous" name="CloudTechnologies_MainframeComputers"/>
    <DataField dataType="double" optype="continuous" name="FeatureJavaScriptProduct"/>
    <DataField dataType="double" optype="continuous" name="CloudTechnologies_SystemSecurityServices"/>
    <DataField dataType="double" optype="continuous" name="BusinessFirmographicsParentEmployees"/>
    <DataField dataType="double" optype="continuous" name="Awards_Source_IsMatched"/>
    <DataField dataType="double" optype="continuous" name="Alexa_Source_IsMatched"/>
    <DataField dataType="double" optype="continuous" name="VC_Source_IsMatched"/>
    <DataField dataType="double" optype="continuous" name="CloudTechnologies_EnterpriseApplications_Two"/>
    <DataField dataType="double" optype="continuous" name="BusinessEstablishedYear"/>
    <DataField dataType="double" optype="continuous" name="BusinessFirmographicsParentRevenue"/>
    <DataField dataType="double" optype="continuous" name="TotalParticipantsSOY"/>
    <DataField dataType="double" optype="continuous" name="Twitter_Source_IsMatched"/>
    <DataField dataType="double" optype="continuous" name="CloudTechnologies_CustomerOrderManagement"/>
    <DataField dataType="double" optype="continuous" name="CloudTechnologies_PaaS"/>
    <DataField dataType="double" optype="continuous" name="BusinessTechnologiesSeoMeta"/>
    <DataField dataType="double" optype="continuous" name="JobsTrendString"/>
    <DataField dataType="double" optype="continuous" name="ActiveRetirementParticipants"/>
    <DataField dataType="double" optype="continuous" name="SemrushRank"/>
    <DataField dataType="double" optype="continuous" name="RetirementAssetsYOY"/>
    <DataField dataType="double" optype="continuous" name="FeatureTermPaymentOption"/>
    <DataField dataType="double" optype="continuous" name="SemrushOrganicCost"/>
    <DataField dataType="double" optype="continuous" name="Twitter_Following"/>
    <DataField dataType="double" optype="continuous" name="CloudTechnologies_ITGovernance_One"/>
    <DataField dataType="double" optype="continuous" name="Semrush_IsMatched"/>
    <DataField dataType="double" optype="continuous" name="AlexaReachPerMillion"/>
    <DataField dataType="double" optype="continuous" name="FeatureAverageDocumentSizeProcessed"/>
    <DataField dataType="double" optype="continuous" name="FeatureTermShippingInfo"/>
    <DataField dataType="double" optype="continuous" name="CloudTechnologies_EnterpriseContent_One"/>
    <DataField dataType="double" optype="continuous" name="CloudTechnologies_DocumentManagement"/>
    <DataField dataType="double" optype="continuous" name="OrbIntelligence_Source_IsMatched"/>
    <DataField dataType="double" optype="continuous" name="FeatureTermShopBy"/>
    <DataField dataType="double" optype="continuous" name="AlexaViewsRank"/>
    <DataField dataType="double" optype="continuous" name="FeatureTermContinueShopping"/>
    <DataField dataType="double" optype="continuous" name="AlexaGBUsers"/>
    <DataField dataType="double" optype="continuous" name="FeatureGlobalBasket"/>
    <DataField dataType="double" optype="continuous" name="BusinessTechnologiesJavascript"/>
    <DataField dataType="double" optype="continuous" name="SemrushAdwordsKeywords"/>
    <DataField dataType="double" optype="continuous" name="FeatureRefSrcProduct"/>
    <DataField dataType="double" optype="continuous" name="CloudTechnologies_MiddlewareSoftware"/>
    <DataField dataType="double" optype="continuous" name="CloudTechnologies_EnterpriseApplications_One"/>
    <DataField dataType="double" optype="continuous" name="BusinessTechnologiesShop"/>
    <DataField dataType="double" optype="continuous" name="FundingFiscalYear"/>
    <DataField dataType="double" optype="continuous" name="AlexaGBPageViews"/>
    <DataField dataType="double" optype="continuous" name="BusinessTechnologiesWidgets"/>
    <DataField dataType="double" optype="continuous" name="BusinessTechnologiesSeoTitle"/>
    <DataField dataType="double" optype="continuous" name="CloudTechnologies_Construction"/>
    <DataField dataType="double" optype="continuous" name="CloudTechnologies_ConsumerElectronics"/>
    <DataField dataType="double" optype="continuous" name="FeatureTermStore"/>
    <DataField dataType="double" optype="continuous" name="FeatureTermFreeShipping"/>
    <DataField dataType="double" optype="continuous" name="BusinessTechnologiesPayment"/>
    <DataField dataType="double" optype="continuous" name="CloudTechnologies_PartnerManagement"/>
    <DataField dataType="double" optype="continuous" name="CloudTechnologies_Medical"/>
    <DataField dataType="double" optype="continuous" name="HPA_Source_IsMatched"/>
    <DataField dataType="double" optype="continuous" name="CloudTechnologies_OSComputingLanguages"/>
    <DataField dataType="double" optype="continuous" name="AlexaAUUsers"/>
    <DataField dataType="double" optype="continuous" name="BusinessTechnologiesCms"/>
    <DataField dataType="double" optype="continuous" name="CloudTechnologies_ApplicationDevelopmentMgmt"/>
    <DataField dataType="double" optype="continuous" name="CloudTechnologies_Collaboration"/>
    <DataField dataType="double" optype="continuous" name="CloudTechnologies_Telephony"/>
    <DataField dataType="double" optype="continuous" name="CloudTechnologies_SocialMediaSystems"/>
    <DataField dataType="double" optype="continuous" name="Twitter_Tweets"/>
    <DataField dataType="double" optype="continuous" name="FeatureTermPrice"/>
    <DataField dataType="double" optype="continuous" name="CloudTechnologies_CommunicationsTechnology"/>
    <DataField dataType="double" optype="continuous" name="FeatureTermDeal"/>
    <DataField dataType="double" optype="continuous" name="CloudTechnologies_VirtualizationPlatformMgmt"/>
    <DataField dataType="double" optype="continuous" name="CloudTechnologies_LeanKaizenValueStreamMapping"/>
    <DataField dataType="double" optype="continuous" name="CloudTechnologies_BusinessIntelligence"/>
    <DataField dataType="double" optype="continuous" name="CloudTechnologies_QualityManagementSystem"/>
    <DataField dataType="double" optype="continuous" name="FeatureTermCatalog"/>
    <DataField dataType="double" optype="continuous" name="CloudTechnologies_ContactCenterManagement"/>
    <DataField dataType="double" optype="continuous" name="CloudTechnologies_MobileTechnologies"/>
    <DataField dataType="double" optype="continuous" name="AlexaUSPageViews"/>
    <DataField dataType="double" optype="continuous" name="FeatureTermCustomerSupport"/>
    <DataField dataType="double" optype="continuous" name="BusinessTechnologiesAds"/>
    <DataField dataType="double" optype="continuous" name="FeatureInputValueAddToBag"/>
    <DataField dataType="double" optype="continuous" name="FeatureTermCart"/>
    <DataField dataType="double" optype="continuous" name="CloudTechnologies_DesignPublishing"/>
    <DataField dataType="double" optype="continuous" name="FeatureTermFrequentlyAskedQuestion"/>
    <DataField dataType="double" optype="continuous" name="AlexaAURank"/>
    <DataField dataType="double" optype="continuous" name="BusinessEstimatedAnnualSales_k"/>
    <DataField dataType="double" optype="continuous" name="CloudTechnologies_Email"/>
    <DataField dataType="double" optype="continuous" name="CloudTechnologies_VerticalMarkets_One"/>
    <DataField dataType="double" optype="continuous" name="BusinessTechnologiesFeeds"/>
    <DataField dataType="double" optype="continuous" name="Experian_Source_IsMatched"/>
    <DataField dataType="double" optype="continuous" name="FeatureGlobalShop"/>
    <DataField dataType="double" optype="continuous" name="FeatureRefSrcBasket"/>
    <DataField dataType="double" optype="continuous" name="BusinessTechnologiesWebServer"/>
    <DataField dataType="double" optype="continuous" name="CloudTechnologies_CaseManagement"/>
    <DataField dataType="double" optype="continuous" name="Twitter_Followers"/>
    <DataField dataType="double" optype="continuous" name="CloudTechnologies_ProductivitySolutions"/>
    <DataField dataType="double" optype="continuous" name="FundingFinanceRound"/>
    <DataField dataType="double" optype="continuous" name="CloudTechnologies_ProductivitySltns_Two"/>
    <DataField dataType="double" optype="continuous" name="CloudTechnologies_HardwareBasic_One"/>
    <DataField dataType="double" optype="continuous" name="NumberOfEmployees"/>
    <DataField dataType="double" optype="continuous" name="AlexaCARank"/>
    <DataField dataType="double" optype="continuous" name="CloudTechnologies_CommTech_One"/>
    <DataField dataType="double" optype="continuous" name="CloudTechnologies_EPM"/>
    <DataField dataType="double" optype="continuous" name="CloudTechnologies_DataCenterSolutions_One"/>
    <DataField dataType="double" optype="continuous" name="SemrushAdwordsCost"/>
    <DataField dataType="double" optype="continuous" name="IsPublicDomain"/>
    <DataField dataType="double" optype="continuous" name="CloudTechnologies_SCM"/>
    <DataField dataType="double" optype="continuous" name="CloudTechnologies_MidrangeComputers"/>
    <DataField dataType="double" optype="continuous" name="AlexaViewsPerUser"/>
    <DataField dataType="double" optype="continuous" name="CloudTechnologies_ProjectMgnt_One"/>
    <DataField dataType="double" optype="continuous" name="HPA_New_Pivoted_Source_IsMatched"/>
    <DataField dataType="double" optype="continuous" name="CloudTechnologies_IaaS"/>
    <DataField dataType="double" optype="continuous" name="CloudTechnologies_ProjectManagement"/>
    <DataField dataType="double" optype="continuous" name="CloudTechnologies_SoftwareBasic_Two"/>
    <DataField dataType="double" optype="continuous" name="CloudTechnologies_CloudService_Two"/>
    <DataField dataType="double" optype="continuous" name="FeatureNumDocumentsProcessed"/>
    <DataField dataType="double" optype="continuous" name="CloudTechnologies_MarketingPerformanceMeasurement"/>
    <DataField dataType="double" optype="continuous" name="AwardYear"/>
    <DataField dataType="double" optype="continuous" name="FeatureTermCheckout"/>
    <DataField dataType="double" optype="continuous" name="BusinessTechnologiesDocinfo"/>
    <DataField dataType="double" optype="continuous" name="CloudTechnologies_ERP"/>
    <DataField dataType="double" optype="continuous" name="AlexaGBRank"/>
    <DataField dataType="double" optype="continuous" name="YearStarted"/>
    <DataField dataType="double" optype="continuous" name="BusinessTechnologiesSsl"/>
    <DataField dataType="double" optype="continuous" name="CloudTechnologies_ITManagement"/>
    <DataField dataType="double" optype="continuous" name="CloudTechnologies_SIEM"/>
    <DataField dataType="double" optype="continuous" name="CloudTechnologies_NetworkManagementSoftware"/>
    <DataField dataType="double" optype="continuous" name="CloudTechnologies_DataArchivingBackUpRecovery"/>
    <DataField dataType="double" optype="continuous" name="CompanyType"/>
    <DataField dataType="double" optype="continuous" name="Patents_Source_IsMatched"/>
    <DataField dataType="double" optype="continuous" name="CloudTechnologies_Media"/>
    <DataField dataType="double" optype="continuous" name="CloudTechnologies_HRMS_HCM"/>
    <DataField dataType="double" optype="continuous" name="CloudTechnologies_SearchEngine"/>
    <DataField dataType="double" optype="continuous" name="FeatureRefSrcShop"/>
    <DataField dataType="double" optype="continuous" name="CloudTechnologies_MarketingPerfMgmt_Two"/>
    <DataField dataType="double" optype="continuous" name="BankruptcyFiled"/>
    <DataField dataType="double" optype="continuous" name="FeatureTermProduct"/>
    <DataField dataType="double" optype="continuous" name="BusinessTechnologiesHosting"/>
    <DataField dataType="double" optype="continuous" name="FeatureInputValueAddItem"/>
    <DataField dataType="double" optype="continuous" name="BusinessTechnologiesEncoding"/>
    <DataField dataType="double" optype="continuous" name="CloudTechnologies_DR"/>
    <DataField dataType="double" optype="continuous" name="CloudTechnologies_OVP"/>
    <DataField dataType="double" optype="continuous" name="FeatureTermShippingAndHandling"/>
    <DataField dataType="double" optype="continuous" name="CloudTechnologies_Printers"/>
    <DataField dataType="double" optype="continuous" name="BusinessAnnualSalesAbs"/>
    <DataField dataType="double" optype="continuous" name="Intelliscore"/>
    <DataField dataType="double" optype="continuous" name="CloudTechnologies_NetworkComputing_Two"/>
    <DataField dataType="double" optype="continuous" name="FeatureTermSearch"/>
    <DataField dataType="double" optype="continuous" name="CloudTechnologies_NetworkManagementHardware"/>
    <DataField dataType="double" optype="continuous" name="FeatureGlobalCart"/>
    <DataField dataType="double" optype="continuous" name="FeatureTermAddToBag"/>
    <DataField dataType="double" optype="continuous" name="CloudTechnologies_Retail"/>
    <DataField dataType="double" optype="continuous" name="BusinessTechnologiesMx"/>
    <DataField dataType="double" optype="continuous" name="CloudTechnologies_ReportingSoftware"/>
    <DataField dataType="double" optype="continuous" name="FeatureTermAddToBasket"/>
    <DataField dataType="double" optype="continuous" name="FeatureTermPaymentMethod"/>
    <DataField dataType="double" optype="continuous" name="BusinessTechnologiesMedia"/>
    <DataField dataType="double" optype="continuous" name="FeatureTermBag"/>
    <DataField dataType="double" optype="continuous" name="AlexaCAPageViews"/>
    <DataField dataType="double" optype="continuous" name="EmailType"/>
    <DataField dataType="double" optype="continuous" name="CloudTechnologies_Commerce"/>
    <DataField dataType="double" optype="continuous" name="RetirementAssetsEOY"/>
    <DataField dataType="double" optype="continuous" name="FraudOrDishonesty"/>
    <DataField dataType="double" optype="continuous" name="FeatureTermBasket"/>
    <DataField dataType="double" optype="continuous" name="FeatureTermMyAccount"/>
    <DataField dataType="double" optype="continuous" name="FeatureRefSrcCart"/>
    <DataField dataType="double" optype="continuous" name="FeatureInputValueAddToBasket"/>
    <DataField dataType="double" optype="continuous" name="CloudTechnologies_EnterpriseLearning"/>
    <DataField dataType="double" optype="continuous" name="CloudTechnologies_FinancialAnalyticalApplications"/>
    <DataField dataType="double" optype="continuous" name="CompanyName_Entropy"/>
    <DataField dataType="double" optype="continuous" name="Title_Length"/>
    <DataField dataType="double" optype="continuous" name="CompanyName_Length"/>
    <DataField dataType="double" optype="continuous" name="RelatedLinks_Count"/>
    <DataField dataType="double" optype="continuous" name="Domain_Length"/>
    <DataField dataType="double" optype="continuous" name="Phone_Entropy"/>
    <DataField dataType="double" optype="continuous" name="Website_Age_Months"/>
    <DataField dataType="double" optype="continuous" name="ModelAction1"/>
    <DataField dataType="double" optype="continuous" name="SpamIndicator"/>
    <DataField dataType="double" optype="continuous" name="Title_Level"/>
    <DataField dataType="double" optype="continuous" name="Title_IsTechRelated"/>
    <DataField dataType="double" optype="continuous" name="JobsTrendString1"/>
    <DataField dataType="double" optype="continuous" name="FundingStage1"/>
    <DataField dataType="double" optype="continuous" name="Title_IsAcademic"/>
    <DataField dataType="double" optype="continuous" name="FirstName_SameAs_LastName"/>
    <DataField dataType="double" optype="continuous" name="Industry_Group"/>
  </DataDictionary>
  <MiningModel modelName="randomForestModel" functionName="classification">
    <MiningSchema>
      <MiningField usageType="active" name="FeatureTermOrderHistory"/>
      <MiningField usageType="active" name="CloudTechnologies_SoftwareBasic_One"/>
      <MiningField usageType="active" name="BusinessTechnologiesWebMaster"/>
      <MiningField usageType="active" name="SemrushOrganicTraffic"/>
      <MiningField usageType="active" name="CloudTechnologies_CRM_Two"/>
      <MiningField usageType="active" name="FeatureJavaScriptCart"/>
      <MiningField usageType="active" name="ExperianCreditRating"/>
      <MiningField usageType="active" name="AssetsStartOfYear"/>
      <MiningField usageType="active" name="FeatureTermCreateAccount"/>
      <MiningField usageType="active" name="CloudTechnologies_Philanthropic"/>
      <MiningField usageType="active" name="BusinessECommerceSite"/>
      <MiningField usageType="active" name="CloudTechnologies_SustainabilityGreenEnterprise"/>
      <MiningField usageType="active" name="FeatureJavaScriptStore"/>
      <MiningField usageType="active" name="CloudTechnologies_RemoteComputerServerSolutions"/>
      <MiningField usageType="active" name="CloudTechnologies_WebPortalTechnology"/>
      <MiningField usageType="active" name="BusinessEstimatedEmployees"/>
      <MiningField usageType="active" name="CloudTechnologies_DataManagementStorageHardware"/>
      <MiningField usageType="active" name="FeatureTermShop"/>
      <MiningField usageType="active" name="AlexaUSUsers"/>
      <MiningField usageType="active" name="FeatureTermReview"/>
      <MiningField usageType="active" name="CloudTechnologies_ChangeManagement"/>
      <MiningField usageType="active" name="CloudTechnologies_GRC"/>
      <MiningField usageType="active" name="SemrushAdwordsTraffic"/>
      <MiningField usageType="active" name="AlexaAUPageViews"/>
      <MiningField usageType="active" name="BusinessTechnologiesSeoHeaders"/>
      <MiningField usageType="active" name="CloudTechnologies_ITGovernance_Two"/>
      <MiningField usageType="active" name="FeatureTermBargain"/>
      <MiningField usageType="active" name="CloudTechnologies_ServiceFieldSupportManagement"/>
      <MiningField usageType="active" name="CloudTechnologies_Procurement"/>
      <MiningField usageType="active" name="CloudTechnologies_VirtualizationServerDataCenter"/>
      <MiningField usageType="active" name="CloudTechnologies_DataCenterSolutions_Two"/>
      <MiningField usageType="active" name="AlexaReachRank"/>
      <MiningField usageType="active" name="FeatureTermReturnPolicy"/>
      <MiningField usageType="active" name="BusinessTechnologiesServer"/>
      <MiningField usageType="active" name="FeatureTermRetail"/>
      <MiningField usageType="active" name="FeatureTermSale"/>
      <MiningField usageType="active" name="CloudTechnologies_ServerTechnologiesSoftware"/>
      <MiningField usageType="active" name="FeatureTermWishList"/>
      <MiningField usageType="active" name="FundingStage"/>
      <MiningField usageType="active" name="FundingAmount"/>
      <MiningField usageType="active" name="BusinessTechnologiesNs"/>
      <MiningField usageType="active" name="BusinessSocialPresence"/>
      <MiningField usageType="active" name="CloudTechnologies_ServerTechnologiesHardware"/>
      <MiningField usageType="active" name="LICompanies_Source_IsMatched"/>
      <MiningField usageType="active" name="FeatureGlobalProduct"/>
      <MiningField usageType="active" name="FeatureTermCustomerService"/>
      <MiningField usageType="active" name="CloudTechnologies_HelpDeskManagement"/>
      <MiningField usageType="active" name="FeatureTermShippingPolicy"/>
      <MiningField usageType="active" name="FeatureJavaScriptBag"/>
      <MiningField usageType="active" name="CloudTechnologies_PPM"/>
      <MiningField usageType="active" name="HPANumPages"/>
      <MiningField usageType="active" name="LE_Jobs_Source_IsMatched"/>
      <MiningField usageType="active" name="CloudTechnologies_CloudService_One"/>
      <MiningField usageType="active" name="AlexaUSRank"/>
      <MiningField usageType="active" name="ModelAction"/>
      <MiningField usageType="active" name="CloudTechnologies_NetworkComputing_One"/>
      <MiningField usageType="active" name="DisposableEmail"/>
      <MiningField usageType="active" name="GovernmentContracts_MostRecent_IsMatched"/>
      <MiningField usageType="active" name="LE_Crunchbase_Source_IsMatched"/>
      <MiningField usageType="active" name="FeatureGlobalBag"/>
      <MiningField usageType="active" name="FeatureTermOrderStatus"/>
      <MiningField usageType="active" name="JobsRecentJobs"/>
      <MiningField usageType="active" name="FeatureInputValueAddToCart"/>
      <MiningField usageType="active" name="CloudTechnologies_AutomatedProcessWorkflowSystems"/>
      <MiningField usageType="active" name="UCCFilingsPresent"/>
      <MiningField usageType="active" name="CloudTechnologies_CloudInfrastructureComputing"/>
      <MiningField usageType="active" name="CloudTechnologies_CommTech_Two"/>
      <MiningField usageType="active" name="BusinessTechnologiesSocialMediaPresence"/>
      <MiningField usageType="active" name="CloudTechnologies_RealEstate"/>
      <MiningField usageType="active" name="FeatureGlobalStore"/>
      <MiningField usageType="active" name="CloudTechnologies_WCMS"/>
      <MiningField usageType="active" name="BusinessTechnologiesParked"/>
      <MiningField usageType="active" name="CloudTechnologies_LegalProfessionalServices"/>
      <MiningField usageType="active" name="FeatureNumDocumentsFetched"/>
      <MiningField usageType="active" name="CloudTechnologies_VerticalMarkets_Two"/>
      <MiningField usageType="active" name="FeatureRefSrcStore"/>
      <MiningField usageType="active" name="CloudTechnologies_ITInfrastructureOperations"/>
      <MiningField usageType="active" name="CloudTechnologies_TravelandExpenseManagement"/>
      <MiningField usageType="active" name="CloudTechnologies_ProjectMgnt_Two"/>
      <MiningField usageType="active" name="CloudTechnologies_Hypervisor"/>
      <MiningField usageType="active" name="ExperianParent_Source_IsMatched"/>
      <MiningField usageType="active" name="CloudTechnologies_SystemAnalyticsMonitoring"/>
      <MiningField usageType="active" name="BusinessTechnologiesMapping"/>
      <MiningField usageType="active" name="CloudTechnologies_SRM"/>
      <MiningField usageType="active" name="BuiltWith_Pivoted_Source_IsMatched"/>
      <MiningField usageType="active" name="UCCFilings"/>
      <MiningField usageType="active" name="LeadSource"/>
      <MiningField usageType="active" name="FeatureTermAddItem"/>
      <MiningField usageType="active" name="CloudTechnologies_DatabaseManagementSoftware"/>
      <MiningField usageType="active" name="CloudTechnologies_PLM"/>
      <MiningField usageType="active" name="DerogatoryIndicator"/>
      <MiningField usageType="active" name="FiftyFiveHundred_Main_Source_IsMatched"/>
      <MiningField usageType="active" name="FeatureJavaScriptShop"/>
      <MiningField usageType="active" name="CloudTechnologies_VisualizationSoftware"/>
      <MiningField usageType="active" name="FeatureJavaScriptBasket"/>
      <MiningField usageType="active" name="CloudTechnologies_ProductivitySltns_One"/>
      <MiningField usageType="active" name="CloudTechnologies_MarketingPerfMgmt_One"/>
      <MiningField usageType="active" name="Feature_Pivoted_Source_IsMatched"/>
      <MiningField usageType="active" name="CloudTechnologies_WebOrntdArch_Two"/>
      <MiningField usageType="active" name="CloudTechnologies_VirtualizationAppDesktop"/>
      <MiningField usageType="active" name="AlexaViewsPerMillion"/>
      <MiningField usageType="active" name="FeatureRefSrcBag"/>
      <MiningField usageType="active" name="SemrushOrganicKeywords"/>
      <MiningField usageType="active" name="AnnualRevenue"/>
      <MiningField usageType="active" name="CloudTechnologies_CRM_One"/>
      <MiningField usageType="active" name="CloudTechnologies_BPM"/>
      <MiningField usageType="active" name="FeatureTermShippingAddress"/>
      <MiningField usageType="active" name="BusinessTechnologiesFramework"/>
      <MiningField usageType="active" name="AlexaRank"/>
      <MiningField usageType="active" name="BusinessTechnologiesAnalytics"/>
      <MiningField usageType="active" name="FeatureTermBillingAddress"/>
      <MiningField usageType="active" name="CloudTechnologies_EBS"/>
      <MiningField usageType="active" name="FiftyFiveHundred_smallFirms_Source_IsMatched"/>
      <MiningField usageType="active" name="CloudTechnologies_AssetPerformanceManagement"/>
      <MiningField usageType="active" name="AlexaCAUsers"/>
      <MiningField usageType="active" name="CloudTechnologies_HardwareOther"/>
      <MiningField usageType="active" name="FeatureTermBuy"/>
      <MiningField usageType="active" name="CloudTechnologies_ManufacturingEngineering"/>
      <MiningField usageType="active" name="FeatureTermSecureOrder"/>
      <MiningField usageType="active" name="CloudTechnologies_EnterpriseContent_Two"/>
      <MiningField usageType="active" name="CloudTechnologies_WebOrntdArch_One"/>
      <MiningField usageType="active" name="CloudTechnologies_AcademicEduMgmtSoftware"/>
      <MiningField usageType="active" name="FeatureTermAddToCart"/>
      <MiningField usageType="active" name="PercentileModel"/>
      <MiningField usageType="active" name="CloudTechnologies_MobileEnterpriseManagement"/>
      <MiningField usageType="active" name="CloudTechnologies_CRM"/>
      <MiningField usageType="active" name="CloudTechnologies_InventoryManagement"/>
      <MiningField usageType="active" name="CloudTechnologies_ECM"/>
      <MiningField usageType="active" name="Facebook_Likes"/>
      <MiningField usageType="active" name="BusinessTechnologiesCdn"/>
      <MiningField usageType="active" name="CloudTechnologies_SoftwareOther"/>
      <MiningField usageType="active" name="BusinessTechnologiesMarketingAutomation"/>
      <MiningField usageType="active" name="HGData_Pivoted_Source_IsMatched"/>
      <MiningField usageType="active" name="CloudTechnologies_EDA"/>
      <MiningField usageType="active" name="CloudTechnologies_HardwareBasic_Two"/>
      <MiningField usageType="active" name="CloudTechnologies_EDI"/>
      <MiningField usageType="active" name="BusinessTechnologiesOpenSourceAdoption"/>
      <MiningField usageType="active" name="CloudTechnologies_MainframeComputers"/>
      <MiningField usageType="active" name="FeatureJavaScriptProduct"/>
      <MiningField usageType="active" name="CloudTechnologies_SystemSecurityServices"/>
      <MiningField usageType="active" name="BusinessFirmographicsParentEmployees"/>
      <MiningField usageType="active" name="Awards_Source_IsMatched"/>
      <MiningField usageType="active" name="Alexa_Source_IsMatched"/>
      <MiningField usageType="active" name="VC_Source_IsMatched"/>
      <MiningField usageType="active" name="CloudTechnologies_EnterpriseApplications_Two"/>
      <MiningField usageType="active" name="BusinessEstablishedYear"/>
      <MiningField usageType="active" name="BusinessFirmographicsParentRevenue"/>
      <MiningField usageType="active" name="TotalParticipantsSOY"/>
      <MiningField usageType="active" name="Twitter_Source_IsMatched"/>
      <MiningField usageType="active" name="CloudTechnologies_CustomerOrderManagement"/>
      <MiningField usageType="active" name="CloudTechnologies_PaaS"/>
      <MiningField usageType="active" name="BusinessTechnologiesSeoMeta"/>
      <MiningField usageType="active" name="JobsTrendString"/>
      <MiningField usageType="active" name="ActiveRetirementParticipants"/>
      <MiningField usageType="active" name="SemrushRank"/>
      <MiningField usageType="active" name="RetirementAssetsYOY"/>
      <MiningField usageType="active" name="FeatureTermPaymentOption"/>
      <MiningField usageType="active" name="SemrushOrganicCost"/>
      <MiningField usageType="active" name="Twitter_Following"/>
      <MiningField usageType="active" name="CloudTechnologies_ITGovernance_One"/>
      <MiningField usageType="active" name="Semrush_IsMatched"/>
      <MiningField usageType="active" name="AlexaReachPerMillion"/>
      <MiningField usageType="active" name="FeatureAverageDocumentSizeProcessed"/>
      <MiningField usageType="active" name="FeatureTermShippingInfo"/>
      <MiningField usageType="active" name="CloudTechnologies_EnterpriseContent_One"/>
      <MiningField usageType="active" name="CloudTechnologies_DocumentManagement"/>
      <MiningField usageType="active" name="OrbIntelligence_Source_IsMatched"/>
      <MiningField usageType="active" name="FeatureTermShopBy"/>
      <MiningField usageType="active" name="AlexaViewsRank"/>
      <MiningField usageType="active" name="FeatureTermContinueShopping"/>
      <MiningField usageType="active" name="AlexaGBUsers"/>
      <MiningField usageType="active" name="FeatureGlobalBasket"/>
      <MiningField usageType="active" name="BusinessTechnologiesJavascript"/>
      <MiningField usageType="active" name="SemrushAdwordsKeywords"/>
      <MiningField usageType="active" name="FeatureRefSrcProduct"/>
      <MiningField usageType="active" name="CloudTechnologies_MiddlewareSoftware"/>
      <MiningField usageType="active" name="CloudTechnologies_EnterpriseApplications_One"/>
      <MiningField usageType="active" name="BusinessTechnologiesShop"/>
      <MiningField usageType="active" name="FundingFiscalYear"/>
      <MiningField usageType="active" name="AlexaGBPageViews"/>
      <MiningField usageType="active" name="BusinessTechnologiesWidgets"/>
      <MiningField usageType="active" name="BusinessTechnologiesSeoTitle"/>
      <MiningField usageType="active" name="CloudTechnologies_Construction"/>
      <MiningField usageType="active" name="CloudTechnologies_ConsumerElectronics"/>
      <MiningField usageType="active" name="FeatureTermStore"/>
      <MiningField usageType="active" name="FeatureTermFreeShipping"/>
      <MiningField usageType="active" name="BusinessTechnologiesPayment"/>
      <MiningField usageType="active" name="CloudTechnologies_PartnerManagement"/>
      <MiningField usageType="active" name="CloudTechnologies_Medical"/>
      <MiningField usageType="active" name="HPA_Source_IsMatched"/>
      <MiningField usageType="active" name="CloudTechnologies_OSComputingLanguages"/>
      <MiningField usageType="active" name="AlexaAUUsers"/>
      <MiningField usageType="active" name="BusinessTechnologiesCms"/>
      <MiningField usageType="active" name="CloudTechnologies_ApplicationDevelopmentMgmt"/>
      <MiningField usageType="active" name="CloudTechnologies_Collaboration"/>
      <MiningField usageType="active" name="CloudTechnologies_Telephony"/>
      <MiningField usageType="active" name="CloudTechnologies_SocialMediaSystems"/>
      <MiningField usageType="active" name="Twitter_Tweets"/>
      <MiningField usageType="active" name="FeatureTermPrice"/>
      <MiningField usageType="active" name="CloudTechnologies_CommunicationsTechnology"/>
      <MiningField usageType="active" name="FeatureTermDeal"/>
      <MiningField usageType="active" name="CloudTechnologies_VirtualizationPlatformMgmt"/>
      <MiningField usageType="active" name="CloudTechnologies_LeanKaizenValueStreamMapping"/>
      <MiningField usageType="active" name="CloudTechnologies_BusinessIntelligence"/>
      <MiningField usageType="active" name="CloudTechnologies_QualityManagementSystem"/>
      <MiningField usageType="active" name="FeatureTermCatalog"/>
      <MiningField usageType="active" name="CloudTechnologies_ContactCenterManagement"/>
      <MiningField usageType="active" name="CloudTechnologies_MobileTechnologies"/>
      <MiningField usageType="active" name="AlexaUSPageViews"/>
      <MiningField usageType="active" name="FeatureTermCustomerSupport"/>
      <MiningField usageType="active" name="BusinessTechnologiesAds"/>
      <MiningField usageType="active" name="FeatureInputValueAddToBag"/>
      <MiningField usageType="active" name="FeatureTermCart"/>
      <MiningField usageType="active" name="CloudTechnologies_DesignPublishing"/>
      <MiningField usageType="active" name="FeatureTermFrequentlyAskedQuestion"/>
      <MiningField usageType="active" name="AlexaAURank"/>
      <MiningField usageType="active" name="BusinessEstimatedAnnualSales_k"/>
      <MiningField usageType="active" name="CloudTechnologies_Email"/>
      <MiningField usageType="active" name="CloudTechnologies_VerticalMarkets_One"/>
      <MiningField usageType="active" name="BusinessTechnologiesFeeds"/>
      <MiningField usageType="active" name="Experian_Source_IsMatched"/>
      <MiningField usageType="active" name="FeatureGlobalShop"/>
      <MiningField usageType="active" name="FeatureRefSrcBasket"/>
      <MiningField usageType="active" name="BusinessTechnologiesWebServer"/>
      <MiningField usageType="active" name="CloudTechnologies_CaseManagement"/>
      <MiningField usageType="active" name="Twitter_Followers"/>
      <MiningField usageType="active" name="CloudTechnologies_ProductivitySolutions"/>
      <MiningField usageType="active" name="FundingFinanceRound"/>
      <MiningField usageType="active" name="CloudTechnologies_ProductivitySltns_Two"/>
      <MiningField usageType="active" name="CloudTechnologies_HardwareBasic_One"/>
      <MiningField usageType="active" name="NumberOfEmployees"/>
      <MiningField usageType="active" name="AlexaCARank"/>
      <MiningField usageType="active" name="CloudTechnologies_CommTech_One"/>
      <MiningField usageType="active" name="CloudTechnologies_EPM"/>
      <MiningField usageType="active" name="CloudTechnologies_DataCenterSolutions_One"/>
      <MiningField usageType="active" name="SemrushAdwordsCost"/>
      <MiningField usageType="active" name="IsPublicDomain"/>
      <MiningField usageType="active" name="CloudTechnologies_SCM"/>
      <MiningField usageType="active" name="CloudTechnologies_MidrangeComputers"/>
      <MiningField usageType="active" name="AlexaViewsPerUser"/>
      <MiningField usageType="active" name="CloudTechnologies_ProjectMgnt_One"/>
      <MiningField usageType="active" name="HPA_New_Pivoted_Source_IsMatched"/>
      <MiningField usageType="active" name="CloudTechnologies_IaaS"/>
      <MiningField usageType="active" name="CloudTechnologies_ProjectManagement"/>
      <MiningField usageType="active" name="CloudTechnologies_SoftwareBasic_Two"/>
      <MiningField usageType="active" name="CloudTechnologies_CloudService_Two"/>
      <MiningField usageType="active" name="FeatureNumDocumentsProcessed"/>
      <MiningField usageType="active" name="CloudTechnologies_MarketingPerformanceMeasurement"/>
      <MiningField usageType="active" name="AwardYear"/>
      <MiningField usageType="active" name="FeatureTermCheckout"/>
      <MiningField usageType="active" name="BusinessTechnologiesDocinfo"/>
      <MiningField usageType="active" name="CloudTechnologies_ERP"/>
      <MiningField usageType="active" name="AlexaGBRank"/>
      <MiningField usageType="active" name="YearStarted"/>
      <MiningField usageType="active" name="BusinessTechnologiesSsl"/>
      <MiningField usageType="active" name="CloudTechnologies_ITManagement"/>
      <MiningField usageType="active" name="CloudTechnologies_SIEM"/>
      <MiningField usageType="active" name="CloudTechnologies_NetworkManagementSoftware"/>
      <MiningField usageType="active" name="CloudTechnologies_DataArchivingBackUpRecovery"/>
      <MiningField usageType="active" name="CompanyType"/>
      <MiningField usageType="active" name="Patents_Source_IsMatched"/>
      <MiningField usageType="active" name="CloudTechnologies_Media"/>
      <MiningField usageType="active" name="CloudTechnologies_HRMS_HCM"/>
      <MiningField usageType="active" name="CloudTechnologies_SearchEngine"/>
      <MiningField usageType="active" name="FeatureRefSrcShop"/>
      <MiningField usageType="active" name="CloudTechnologies_MarketingPerfMgmt_Two"/>
      <MiningField usageType="active" name="BankruptcyFiled"/>
      <MiningField usageType="active" name="FeatureTermProduct"/>
      <MiningField usageType="active" name="BusinessTechnologiesHosting"/>
      <MiningField usageType="active" name="FeatureInputValueAddItem"/>
      <MiningField usageType="active" name="BusinessTechnologiesEncoding"/>
      <MiningField usageType="active" name="CloudTechnologies_DR"/>
      <MiningField usageType="active" name="CloudTechnologies_OVP"/>
      <MiningField usageType="active" name="FeatureTermShippingAndHandling"/>
      <MiningField usageType="active" name="CloudTechnologies_Printers"/>
      <MiningField usageType="active" name="BusinessAnnualSalesAbs"/>
      <MiningField usageType="active" name="Intelliscore"/>
      <MiningField usageType="active" name="CloudTechnologies_NetworkComputing_Two"/>
      <MiningField usageType="active" name="FeatureTermSearch"/>
      <MiningField usageType="active" name="CloudTechnologies_NetworkManagementHardware"/>
      <MiningField usageType="active" name="FeatureGlobalCart"/>
      <MiningField usageType="active" name="FeatureTermAddToBag"/>
      <MiningField usageType="active" name="CloudTechnologies_Retail"/>
      <MiningField usageType="active" name="BusinessTechnologiesMx"/>
      <MiningField usageType="active" name="CloudTechnologies_ReportingSoftware"/>
      <MiningField usageType="active" name="FeatureTermAddToBasket"/>
      <MiningField usageType="active" name="FeatureTermPaymentMethod"/>
      <MiningField usageType="active" name="BusinessTechnologiesMedia"/>
      <MiningField usageType="active" name="FeatureTermBag"/>
      <MiningField usageType="active" name="AlexaCAPageViews"/>
      <MiningField usageType="active" name="EmailType"/>
      <MiningField usageType="active" name="CloudTechnologies_Commerce"/>
      <MiningField usageType="active" name="RetirementAssetsEOY"/>
      <MiningField usageType="active" name="FraudOrDishonesty"/>
      <MiningField usageType="active" name="FeatureTermBasket"/>
      <MiningField usageType="active" name="FeatureTermMyAccount"/>
      <MiningField usageType="active" name="FeatureRefSrcCart"/>
      <MiningField usageType="active" name="FeatureInputValueAddToBasket"/>
      <MiningField usageType="active" name="CloudTechnologies_EnterpriseLearning"/>
      <MiningField usageType="active" name="CloudTechnologies_FinancialAnalyticalApplications"/>
      <MiningField usageType="active" name="CompanyName_Entropy"/>
      <MiningField usageType="active" name="Title_Length"/>
      <MiningField usageType="active" name="CompanyName_Length"/>
      <MiningField usageType="active" name="RelatedLinks_Count"/>
      <MiningField usageType="active" name="Domain_Length"/>
      <MiningField usageType="active" name="Phone_Entropy"/>
      <MiningField usageType="active" name="Website_Age_Months"/>
      <MiningField usageType="active" name="ModelAction1"/>
      <MiningField usageType="active" name="SpamIndicator"/>
      <MiningField usageType="active" name="Title_Level"/>
      <MiningField usageType="active" name="Title_IsTechRelated"/>
      <MiningField usageType="active" name="JobsTrendString1"/>
      <MiningField usageType="active" name="FundingStage1"/>
      <MiningField usageType="active" name="Title_IsAcademic"/>
      <MiningField usageType="active" name="FirstName_SameAs_LastName"/>
      <MiningField usageType="active" name="Industry_Group"/>
      <MiningField usageType="predicted" name="P1_Event"/>
    </MiningSchema>
    <Segmentation multipleModelMethod="average">
      <Segment>
        <True/>
        <TreeModel splitCharacteristic="binarySplit" functionName="classification">
          <MiningSchema>
            <MiningField usageType="active" name="FeatureTermOrderHistory"/>
            <MiningField usageType="active" name="CloudTechnologies_SoftwareBasic_One"/>
            <MiningField usageType="active" name="BusinessTechnologiesWebMaster"/>
            <MiningField usageType="active" name="SemrushOrganicTraffic"/>
            <MiningField usageType="active" name="CloudTechnologies_CRM_Two"/>
            <MiningField usageType="active" name="FeatureJavaScriptCart"/>
            <MiningField usageType="active" name="ExperianCreditRating"/>
            <MiningField usageType="active" name="AssetsStartOfYear"/>
            <MiningField usageType="active" name="FeatureTermCreateAccount"/>
            <MiningField usageType="active" name="CloudTechnologies_Philanthropic"/>
            <MiningField usageType="active" name="BusinessECommerceSite"/>
            <MiningField usageType="active" name="CloudTechnologies_SustainabilityGreenEnterprise"/>
            <MiningField usageType="active" name="FeatureJavaScriptStore"/>
            <MiningField usageType="active" name="CloudTechnologies_RemoteComputerServerSolutions"/>
            <MiningField usageType="active" name="CloudTechnologies_WebPortalTechnology"/>
            <MiningField usageType="active" name="BusinessEstimatedEmployees"/>
            <MiningField usageType="active" name="CloudTechnologies_DataManagementStorageHardware"/>
            <MiningField usageType="active" name="FeatureTermShop"/>
            <MiningField usageType="active" name="AlexaUSUsers"/>
            <MiningField usageType="active" name="FeatureTermReview"/>
            <MiningField usageType="active" name="CloudTechnologies_ChangeManagement"/>
            <MiningField usageType="active" name="CloudTechnologies_GRC"/>
            <MiningField usageType="active" name="SemrushAdwordsTraffic"/>
            <MiningField usageType="active" name="AlexaAUPageViews"/>
            <MiningField usageType="active" name="BusinessTechnologiesSeoHeaders"/>
            <MiningField usageType="active" name="CloudTechnologies_ITGovernance_Two"/>
            <MiningField usageType="active" name="FeatureTermBargain"/>
            <MiningField usageType="active" name="CloudTechnologies_ServiceFieldSupportManagement"/>
            <MiningField usageType="active" name="CloudTechnologies_Procurement"/>
            <MiningField usageType="active" name="CloudTechnologies_VirtualizationServerDataCenter"/>
            <MiningField usageType="active" name="CloudTechnologies_DataCenterSolutions_Two"/>
            <MiningField usageType="active" name="AlexaReachRank"/>
            <MiningField usageType="active" name="FeatureTermReturnPolicy"/>
            <MiningField usageType="active" name="BusinessTechnologiesServer"/>
            <MiningField usageType="active" name="FeatureTermRetail"/>
            <MiningField usageType="active" name="FeatureTermSale"/>
            <MiningField usageType="active" name="CloudTechnologies_ServerTechnologiesSoftware"/>
            <MiningField usageType="active" name="FeatureTermWishList"/>
            <MiningField usageType="active" name="FundingStage"/>
            <MiningField usageType="active" name="FundingAmount"/>
            <MiningField usageType="active" name="BusinessTechnologiesNs"/>
            <MiningField usageType="active" name="BusinessSocialPresence"/>
            <MiningField usageType="active" name="CloudTechnologies_ServerTechnologiesHardware"/>
            <MiningField usageType="active" name="LICompanies_Source_IsMatched"/>
            <MiningField usageType="active" name="FeatureGlobalProduct"/>
            <MiningField usageType="active" name="FeatureTermCustomerService"/>
            <MiningField usageType="active" name="CloudTechnologies_HelpDeskManagement"/>
            <MiningField usageType="active" name="FeatureTermShippingPolicy"/>
            <MiningField usageType="active" name="FeatureJavaScriptBag"/>
            <MiningField usageType="active" name="CloudTechnologies_PPM"/>
            <MiningField usageType="active" name="HPANumPages"/>
            <MiningField usageType="active" name="LE_Jobs_Source_IsMatched"/>
            <MiningField usageType="active" name="CloudTechnologies_CloudService_One"/>
            <MiningField usageType="active" name="AlexaUSRank"/>
            <MiningField usageType="active" name="ModelAction"/>
            <MiningField usageType="active" name="CloudTechnologies_NetworkComputing_One"/>
            <MiningField usageType="active" name="DisposableEmail"/>
            <MiningField usageType="active" name="GovernmentContracts_MostRecent_IsMatched"/>
            <MiningField usageType="active" name="LE_Crunchbase_Source_IsMatched"/>
            <MiningField usageType="active" name="FeatureGlobalBag"/>
            <MiningField usageType="active" name="FeatureTermOrderStatus"/>
            <MiningField usageType="active" name="JobsRecentJobs"/>
            <MiningField usageType="active" name="FeatureInputValueAddToCart"/>
            <MiningField usageType="active" name="CloudTechnologies_AutomatedProcessWorkflowSystems"/>
            <MiningField usageType="active" name="UCCFilingsPresent"/>
            <MiningField usageType="active" name="CloudTechnologies_CloudInfrastructureComputing"/>
            <MiningField usageType="active" name="CloudTechnologies_CommTech_Two"/>
            <MiningField usageType="active" name="BusinessTechnologiesSocialMediaPresence"/>
            <MiningField usageType="active" name="CloudTechnologies_RealEstate"/>
            <MiningField usageType="active" name="FeatureGlobalStore"/>
            <MiningField usageType="active" name="CloudTechnologies_WCMS"/>
            <MiningField usageType="active" name="BusinessTechnologiesParked"/>
            <MiningField usageType="active" name="CloudTechnologies_LegalProfessionalServices"/>
            <MiningField usageType="active" name="FeatureNumDocumentsFetched"/>
            <MiningField usageType="active" name="CloudTechnologies_VerticalMarkets_Two"/>
            <MiningField usageType="active" name="FeatureRefSrcStore"/>
            <MiningField usageType="active" name="CloudTechnologies_ITInfrastructureOperations"/>
            <MiningField usageType="active" name="CloudTechnologies_TravelandExpenseManagement"/>
            <MiningField usageType="active" name="CloudTechnologies_ProjectMgnt_Two"/>
            <MiningField usageType="active" name="CloudTechnologies_Hypervisor"/>
            <MiningField usageType="active" name="ExperianParent_Source_IsMatched"/>
            <MiningField usageType="active" name="CloudTechnologies_SystemAnalyticsMonitoring"/>
            <MiningField usageType="active" name="BusinessTechnologiesMapping"/>
            <MiningField usageType="active" name="CloudTechnologies_SRM"/>
            <MiningField usageType="active" name="BuiltWith_Pivoted_Source_IsMatched"/>
            <MiningField usageType="active" name="UCCFilings"/>
            <MiningField usageType="active" name="LeadSource"/>
            <MiningField usageType="active" name="FeatureTermAddItem"/>
            <MiningField usageType="active" name="CloudTechnologies_DatabaseManagementSoftware"/>
            <MiningField usageType="active" name="CloudTechnologies_PLM"/>
            <MiningField usageType="active" name="DerogatoryIndicator"/>
            <MiningField usageType="active" name="FiftyFiveHundred_Main_Source_IsMatched"/>
            <MiningField usageType="active" name="FeatureJavaScriptShop"/>
            <MiningField usageType="active" name="CloudTechnologies_VisualizationSoftware"/>
            <MiningField usageType="active" name="FeatureJavaScriptBasket"/>
            <MiningField usageType="active" name="CloudTechnologies_ProductivitySltns_One"/>
            <MiningField usageType="active" name="CloudTechnologies_MarketingPerfMgmt_One"/>
            <MiningField usageType="active" name="Feature_Pivoted_Source_IsMatched"/>
            <MiningField usageType="active" name="CloudTechnologies_WebOrntdArch_Two"/>
            <MiningField usageType="active" name="CloudTechnologies_VirtualizationAppDesktop"/>
            <MiningField usageType="active" name="AlexaViewsPerMillion"/>
            <MiningField usageType="active" name="FeatureRefSrcBag"/>
            <MiningField usageType="active" name="SemrushOrganicKeywords"/>
            <MiningField usageType="active" name="AnnualRevenue"/>
            <MiningField usageType="active" name="CloudTechnologies_CRM_One"/>
            <MiningField usageType="active" name="CloudTechnologies_BPM"/>
            <MiningField usageType="active" name="FeatureTermShippingAddress"/>
            <MiningField usageType="active" name="BusinessTechnologiesFramework"/>
            <MiningField usageType="active" name="AlexaRank"/>
            <MiningField usageType="active" name="BusinessTechnologiesAnalytics"/>
            <MiningField usageType="active" name="FeatureTermBillingAddress"/>
            <MiningField usageType="active" name="CloudTechnologies_EBS"/>
            <MiningField usageType="active" name="FiftyFiveHundred_smallFirms_Source_IsMatched"/>
            <MiningField usageType="active" name="CloudTechnologies_AssetPerformanceManagement"/>
            <MiningField usageType="active" name="AlexaCAUsers"/>
            <MiningField usageType="active" name="CloudTechnologies_HardwareOther"/>
            <MiningField usageType="active" name="FeatureTermBuy"/>
            <MiningField usageType="active" name="CloudTechnologies_ManufacturingEngineering"/>
            <MiningField usageType="active" name="FeatureTermSecureOrder"/>
            <MiningField usageType="active" name="CloudTechnologies_EnterpriseContent_Two"/>
            <MiningField usageType="active" name="CloudTechnologies_WebOrntdArch_One"/>
            <MiningField usageType="active" name="CloudTechnologies_AcademicEduMgmtSoftware"/>
            <MiningField usageType="active" name="FeatureTermAddToCart"/>
            <MiningField usageType="active" name="PercentileModel"/>
            <MiningField usageType="active" name="CloudTechnologies_MobileEnterpriseManagement"/>
            <MiningField usageType="active" name="CloudTechnologies_CRM"/>
            <MiningField usageType="active" name="CloudTechnologies_InventoryManagement"/>
            <MiningField usageType="active" name="CloudTechnologies_ECM"/>
            <MiningField usageType="active" name="Facebook_Likes"/>
            <MiningField usageType="active" name="BusinessTechnologiesCdn"/>
            <MiningField usageType="active" name="CloudTechnologies_SoftwareOther"/>
            <MiningField usageType="active" name="BusinessTechnologiesMarketingAutomation"/>
            <MiningField usageType="active" name="HGData_Pivoted_Source_IsMatched"/>
            <MiningField usageType="active" name="CloudTechnologies_EDA"/>
            <MiningField usageType="active" name="CloudTechnologies_HardwareBasic_Two"/>
            <MiningField usageType="active" name="CloudTechnologies_EDI"/>
            <MiningField usageType="active" name="BusinessTechnologiesOpenSourceAdoption"/>
            <MiningField usageType="active" name="CloudTechnologies_MainframeComputers"/>
            <MiningField usageType="active" name="FeatureJavaScriptProduct"/>
            <MiningField usageType="active" name="CloudTechnologies_SystemSecurityServices"/>
            <MiningField usageType="active" name="BusinessFirmographicsParentEmployees"/>
            <MiningField usageType="active" name="Awards_Source_IsMatched"/>
            <MiningField usageType="active" name="Alexa_Source_IsMatched"/>
            <MiningField usageType="active" name="VC_Source_IsMatched"/>
            <MiningField usageType="active" name="CloudTechnologies_EnterpriseApplications_Two"/>
            <MiningField usageType="active" name="BusinessEstablishedYear"/>
            <MiningField usageType="active" name="BusinessFirmographicsParentRevenue"/>
            <MiningField usageType="active" name="TotalParticipantsSOY"/>
            <MiningField usageType="active" name="Twitter_Source_IsMatched"/>
            <MiningField usageType="active" name="CloudTechnologies_CustomerOrderManagement"/>
            <MiningField usageType="active" name="CloudTechnologies_PaaS"/>
            <MiningField usageType="active" name="BusinessTechnologiesSeoMeta"/>
            <MiningField usageType="active" name="JobsTrendString"/>
            <MiningField usageType="active" name="ActiveRetirementParticipants"/>
            <MiningField usageType="active" name="SemrushRank"/>
            <MiningField usageType="active" name="RetirementAssetsYOY"/>
            <MiningField usageType="active" name="FeatureTermPaymentOption"/>
            <MiningField usageType="active" name="SemrushOrganicCost"/>
            <MiningField usageType="active" name="Twitter_Following"/>
            <MiningField usageType="active" name="CloudTechnologies_ITGovernance_One"/>
            <MiningField usageType="active" name="Semrush_IsMatched"/>
            <MiningField usageType="active" name="AlexaReachPerMillion"/>
            <MiningField usageType="active" name="FeatureAverageDocumentSizeProcessed"/>
            <MiningField usageType="active" name="FeatureTermShippingInfo"/>
            <MiningField usageType="active" name="CloudTechnologies_EnterpriseContent_One"/>
            <MiningField usageType="active" name="CloudTechnologies_DocumentManagement"/>
            <MiningField usageType="active" name="OrbIntelligence_Source_IsMatched"/>
            <MiningField usageType="active" name="FeatureTermShopBy"/>
            <MiningField usageType="active" name="AlexaViewsRank"/>
            <MiningField usageType="active" name="FeatureTermContinueShopping"/>
            <MiningField usageType="active" name="AlexaGBUsers"/>
            <MiningField usageType="active" name="FeatureGlobalBasket"/>
            <MiningField usageType="active" name="BusinessTechnologiesJavascript"/>
            <MiningField usageType="active" name="SemrushAdwordsKeywords"/>
            <MiningField usageType="active" name="FeatureRefSrcProduct"/>
            <MiningField usageType="active" name="CloudTechnologies_MiddlewareSoftware"/>
            <MiningField usageType="active" name="CloudTechnologies_EnterpriseApplications_One"/>
            <MiningField usageType="active" name="BusinessTechnologiesShop"/>
            <MiningField usageType="active" name="FundingFiscalYear"/>
            <MiningField usageType="active" name="AlexaGBPageViews"/>
            <MiningField usageType="active" name="BusinessTechnologiesWidgets"/>
            <MiningField usageType="active" name="BusinessTechnologiesSeoTitle"/>
            <MiningField usageType="active" name="CloudTechnologies_Construction"/>
            <MiningField usageType="active" name="CloudTechnologies_ConsumerElectronics"/>
            <MiningField usageType="active" name="FeatureTermStore"/>
            <MiningField usageType="active" name="FeatureTermFreeShipping"/>
            <MiningField usageType="active" name="BusinessTechnologiesPayment"/>
            <MiningField usageType="active" name="CloudTechnologies_PartnerManagement"/>
            <MiningField usageType="active" name="CloudTechnologies_Medical"/>
            <MiningField usageType="active" name="HPA_Source_IsMatched"/>
            <MiningField usageType="active" name="CloudTechnologies_OSComputingLanguages"/>
            <MiningField usageType="active" name="AlexaAUUsers"/>
            <MiningField usageType="active" name="BusinessTechnologiesCms"/>
            <MiningField usageType="active" name="CloudTechnologies_ApplicationDevelopmentMgmt"/>
            <MiningField usageType="active" name="CloudTechnologies_Collaboration"/>
            <MiningField usageType="active" name="CloudTechnologies_Telephony"/>
            <MiningField usageType="active" name="CloudTechnologies_SocialMediaSystems"/>
            <MiningField usageType="active" name="Twitter_Tweets"/>
            <MiningField usageType="active" name="FeatureTermPrice"/>
            <MiningField usageType="active" name="CloudTechnologies_CommunicationsTechnology"/>
            <MiningField usageType="active" name="FeatureTermDeal"/>
            <MiningField usageType="active" name="CloudTechnologies_VirtualizationPlatformMgmt"/>
            <MiningField usageType="active" name="CloudTechnologies_LeanKaizenValueStreamMapping"/>
            <MiningField usageType="active" name="CloudTechnologies_BusinessIntelligence"/>
            <MiningField usageType="active" name="CloudTechnologies_QualityManagementSystem"/>
            <MiningField usageType="active" name="FeatureTermCatalog"/>
            <MiningField usageType="active" name="CloudTechnologies_ContactCenterManagement"/>
            <MiningField usageType="active" name="CloudTechnologies_MobileTechnologies"/>
            <MiningField usageType="active" name="AlexaUSPageViews"/>
            <MiningField usageType="active" name="FeatureTermCustomerSupport"/>
            <MiningField usageType="active" name="BusinessTechnologiesAds"/>
            <MiningField usageType="active" name="FeatureInputValueAddToBag"/>
            <MiningField usageType="active" name="FeatureTermCart"/>
            <MiningField usageType="active" name="CloudTechnologies_DesignPublishing"/>
            <MiningField usageType="active" name="FeatureTermFrequentlyAskedQuestion"/>
            <MiningField usageType="active" name="AlexaAURank"/>
            <MiningField usageType="active" name="BusinessEstimatedAnnualSales_k"/>
            <MiningField usageType="active" name="CloudTechnologies_Email"/>
            <MiningField usageType="active" name="CloudTechnologies_VerticalMarkets_One"/>
            <MiningField usageType="active" name="BusinessTechnologiesFeeds"/>
            <MiningField usageType="active" name="Experian_Source_IsMatched"/>
            <MiningField usageType="active" name="FeatureGlobalShop"/>
            <MiningField usageType="active" name="FeatureRefSrcBasket"/>
            <MiningField usageType="active" name="BusinessTechnologiesWebServer"/>
            <MiningField usageType="active" name="CloudTechnologies_CaseManagement"/>
            <MiningField usageType="active" name="Twitter_Followers"/>
            <MiningField usageType="active" name="CloudTechnologies_ProductivitySolutions"/>
            <MiningField usageType="active" name="FundingFinanceRound"/>
            <MiningField usageType="active" name="CloudTechnologies_ProductivitySltns_Two"/>
            <MiningField usageType="active" name="CloudTechnologies_HardwareBasic_One"/>
            <MiningField usageType="active" name="NumberOfEmployees"/>
            <MiningField usageType="active" name="AlexaCARank"/>
            <MiningField usageType="active" name="CloudTechnologies_CommTech_One"/>
            <MiningField usageType="active" name="CloudTechnologies_EPM"/>
            <MiningField usageType="active" name="CloudTechnologies_DataCenterSolutions_One"/>
            <MiningField usageType="active" name="SemrushAdwordsCost"/>
            <MiningField usageType="active" name="IsPublicDomain"/>
            <MiningField usageType="active" name="CloudTechnologies_SCM"/>
            <MiningField usageType="active" name="CloudTechnologies_MidrangeComputers"/>
            <MiningField usageType="active" name="AlexaViewsPerUser"/>
            <MiningField usageType="active" name="CloudTechnologies_ProjectMgnt_One"/>
            <MiningField usageType="active" name="HPA_New_Pivoted_Source_IsMatched"/>
            <MiningField usageType="active" name="CloudTechnologies_IaaS"/>
            <MiningField usageType="active" name="CloudTechnologies_ProjectManagement"/>
            <MiningField usageType="active" name="CloudTechnologies_SoftwareBasic_Two"/>
            <MiningField usageType="active" name="CloudTechnologies_CloudService_Two"/>
            <MiningField usageType="active" name="FeatureNumDocumentsProcessed"/>
            <MiningField usageType="active" name="CloudTechnologies_MarketingPerformanceMeasurement"/>
            <MiningField usageType="active" name="AwardYear"/>
            <MiningField usageType="active" name="FeatureTermCheckout"/>
            <MiningField usageType="active" name="BusinessTechnologiesDocinfo"/>
            <MiningField usageType="active" name="CloudTechnologies_ERP"/>
            <MiningField usageType="active" name="AlexaGBRank"/>
            <MiningField usageType="active" name="YearStarted"/>
            <MiningField usageType="active" name="BusinessTechnologiesSsl"/>
            <MiningField usageType="active" name="CloudTechnologies_ITManagement"/>
            <MiningField usageType="active" name="CloudTechnologies_SIEM"/>
            <MiningField usageType="active" name="CloudTechnologies_NetworkManagementSoftware"/>
            <MiningField usageType="active" name="CloudTechnologies_DataArchivingBackUpRecovery"/>
            <MiningField usageType="active" name="CompanyType"/>
            <MiningField usageType="active" name="Patents_Source_IsMatched"/>
            <MiningField usageType="active" name="CloudTechnologies_Media"/>
            <MiningField usageType="active" name="CloudTechnologies_HRMS_HCM"/>
            <MiningField usageType="active" name="CloudTechnologies_SearchEngine"/>
            <MiningField usageType="active" name="FeatureRefSrcShop"/>
            <MiningField usageType="active" name="CloudTechnologies_MarketingPerfMgmt_Two"/>
            <MiningField usageType="active" name="BankruptcyFiled"/>
            <MiningField usageType="active" name="FeatureTermProduct"/>
            <MiningField usageType="active" name="BusinessTechnologiesHosting"/>
            <MiningField usageType="active" name="FeatureInputValueAddItem"/>
            <MiningField usageType="active" name="BusinessTechnologiesEncoding"/>
            <MiningField usageType="active" name="CloudTechnologies_DR"/>
            <MiningField usageType="active" name="CloudTechnologies_OVP"/>
            <MiningField usageType="active" name="FeatureTermShippingAndHandling"/>
            <MiningField usageType="active" name="CloudTechnologies_Printers"/>
            <MiningField usageType="active" name="BusinessAnnualSalesAbs"/>
            <MiningField usageType="active" name="Intelliscore"/>
            <MiningField usageType="active" name="CloudTechnologies_NetworkComputing_Two"/>
            <MiningField usageType="active" name="FeatureTermSearch"/>
            <MiningField usageType="active" name="CloudTechnologies_NetworkManagementHardware"/>
            <MiningField usageType="active" name="FeatureGlobalCart"/>
            <MiningField usageType="active" name="FeatureTermAddToBag"/>
            <MiningField usageType="active" name="CloudTechnologies_Retail"/>
            <MiningField usageType="active" name="BusinessTechnologiesMx"/>
            <MiningField usageType="active" name="CloudTechnologies_ReportingSoftware"/>
            <MiningField usageType="active" name="FeatureTermAddToBasket"/>
            <MiningField usageType="active" name="FeatureTermPaymentMethod"/>
            <MiningField usageType="active" name="BusinessTechnologiesMedia"/>
            <MiningField usageType="active" name="FeatureTermBag"/>
            <MiningField usageType="active" name="AlexaCAPageViews"/>
            <MiningField usageType="active" name="EmailType"/>
            <MiningField usageType="active" name="CloudTechnologies_Commerce"/>
            <MiningField usageType="active" name="RetirementAssetsEOY"/>
            <MiningField usageType="active" name="FraudOrDishonesty"/>
            <MiningField usageType="active" name="FeatureTermBasket"/>
            <MiningField usageType="active" name="FeatureTermMyAccount"/>
            <MiningField usageType="active" name="FeatureRefSrcCart"/>
            <MiningField usageType="active" name="FeatureInputValueAddToBasket"/>
            <MiningField usageType="active" name="CloudTechnologies_EnterpriseLearning"/>
            <MiningField usageType="active" name="CloudTechnologies_FinancialAnalyticalApplications"/>
            <MiningField usageType="active" name="CompanyName_Entropy"/>
            <MiningField usageType="active" name="Title_Length"/>
            <MiningField usageType="active" name="CompanyName_Length"/>
            <MiningField usageType="active" name="RelatedLinks_Count"/>
            <MiningField usageType="active" name="Domain_Length"/>
            <MiningField usageType="active" name="Phone_Entropy"/>
            <MiningField usageType="active" name="Website_Age_Months"/>
            <MiningField usageType="active" name="ModelAction1"/>
            <MiningField usageType="active" name="SpamIndicator"/>
            <MiningField usageType="active" name="Title_Level"/>
            <MiningField usageType="active" name="Title_IsTechRelated"/>
            <MiningField usageType="active" name="JobsTrendString1"/>
            <MiningField usageType="active" name="FundingStage1"/>
            <MiningField usageType="active" name="Title_IsAcademic"/>
            <MiningField usageType="active" name="FirstName_SameAs_LastName"/>
            <MiningField usageType="active" name="Industry_Group"/>
            <MiningField usageType="predicted" name="P1_Event"/>
          </MiningSchema>
          <Node recordCount="1127">
            <True/>
            <Node recordCount="1103">
              <SimplePredicate operator="lessOrEqual" field="CloudTechnologies_SCM" value="18.5"/>
              <Node recordCount="1093">
                <SimplePredicate operator="lessOrEqual" field="SemrushAdwordsCost" value="503250.0"/>
                <Node recordCount="112">
                  <SimplePredicate operator="lessOrEqual" field="AlexaAUPageViews" value="1.15000009537"/>
                  <Node recordCount="54">
                    <SimplePredicate operator="lessOrEqual" field="CloudTechnologies_NetworkManagementHardware" value="5.5"/>
                    <Node recordCount="43">
                      <SimplePredicate operator="lessOrEqual" field="BusinessTechnologiesAnalytics" value="24.5"/>
                      <Node recordCount="33">
                        <SimplePredicate operator="lessOrEqual" field="SemrushAdwordsCost" value="16343.5"/>
                        <Node recordCount="23">
                          <SimplePredicate operator="lessOrEqual" field="AlexaGBPageViews" value="2.40000009537"/>
                          <ScoreDistribution value="1" recordCount="0.0"/>
                          <ScoreDistribution value="0" recordCount="43.0"/>
                        </Node>
                        <Node recordCount="10">
                          <SimplePredicate operator="greaterThan" field="AlexaGBPageViews" value="2.40000009537"/>
                          <ScoreDistribution value="1" recordCount="1.0"/>
                          <ScoreDistribution value="0" recordCount="16.0"/>
                        </Node>
                      </Node>
                      <Node recordCount="10">
                        <SimplePredicate operator="greaterThan" field="SemrushAdwordsCost" value="16343.5"/>
                        <ScoreDistribution value="1" recordCount="2.0"/>
                        <ScoreDistribution value="0" recordCount="11.0"/>
                      </Node>
                    </Node>
                    <Node recordCount="11">
                      <SimplePredicate operator="greaterThan" field="BusinessTechnologiesAnalytics" value="24.5"/>
                      <ScoreDistribution value="1" recordCount="5.0"/>
                      <ScoreDistribution value="0" recordCount="14.0"/>
                    </Node>
                  </Node>
                  <Node recordCount="58">
                    <SimplePredicate operator="greaterThan" field="CloudTechnologies_NetworkManagementHardware" value="5.5"/>
                    <Node recordCount="48">
                      <SimplePredicate operator="lessOrEqual" field="Domain_Length" value="25.5"/>
                      <Node recordCount="26">
                        <SimplePredicate operator="lessOrEqual" field="FeatureTermCart" value="0.5"/>
                        <Node recordCount="15">
                          <SimplePredicate operator="lessOrEqual" field="CloudTechnologies_ERP" value="4.5"/>
                          <ScoreDistribution value="1" recordCount="14.0"/>
                          <ScoreDistribution value="0" recordCount="11.0"/>
                        </Node>
                        <Node recordCount="11">
                          <SimplePredicate operator="greaterThan" field="CloudTechnologies_ERP" value="4.5"/>
                          <ScoreDistribution value="1" recordCount="3.0"/>
                          <ScoreDistribution value="0" recordCount="11.0"/>
                        </Node>
                      </Node>
                      <Node recordCount="22">
                        <SimplePredicate operator="greaterThan" field="FeatureTermCart" value="0.5"/>
                        <ScoreDistribution value="1" recordCount="1.0"/>
                        <ScoreDistribution value="0" recordCount="33.0"/>
                      </Node>
                    </Node>
                    <Node recordCount="10">
                      <SimplePredicate operator="greaterThan" field="Domain_Length" value="25.5"/>
                      <ScoreDistribution value="1" recordCount="7.0"/>
                      <ScoreDistribution value="0" recordCount="6.0"/>
                    </Node>
                  </Node>
                </Node>
                <Node recordCount="981">
                  <SimplePredicate operator="greaterThan" field="AlexaAUPageViews" value="1.15000009537"/>
                  <Node recordCount="851">
                    <SimplePredicate operator="lessOrEqual" field="BusinessTechnologiesWebServer" value="8.5"/>
                    <Node recordCount="841">
                      <SimplePredicate operator="lessOrEqual" field="BusinessFirmographicsParentRevenue" value="34064000.0"/>
                      <Node recordCount="823">
                        <SimplePredicate operator="lessOrEqual" field="CloudTechnologies_OVP" value="3.5"/>
                        <Node recordCount="420">
                          <SimplePredicate operator="lessOrEqual" field="CloudTechnologies_ServerTechnologiesHardware" value="2.5"/>
                          <Node recordCount="102">
                            <SimplePredicate operator="lessOrEqual" field="AlexaRank" value="103738.0"/>
                            <ScoreDistribution value="1" recordCount="26.0"/>
                            <ScoreDistribution value="0" recordCount="149.0"/>
                          </Node>
                          <Node recordCount="318">
                            <SimplePredicate operator="greaterThan" field="AlexaRank" value="103738.0"/>
                            <ScoreDistribution value="1" recordCount="38.0"/>
                            <ScoreDistribution value="0" recordCount="458.0"/>
                          </Node>
                        </Node>
                        <Node recordCount="403">
                          <SimplePredicate operator="greaterThan" field="CloudTechnologies_ServerTechnologiesHardware" value="2.5"/>
                          <Node recordCount="15">
                            <SimplePredicate operator="lessOrEqual" field="CloudTechnologies_ApplicationDevelopmentMgmt" value="2.5"/>
                            <ScoreDistribution value="1" recordCount="6.0"/>
                            <ScoreDistribution value="0" recordCount="14.0"/>
                          </Node>
                          <Node recordCount="388">
                            <SimplePredicate operator="greaterThan" field="CloudTechnologies_ApplicationDevelopmentMgmt" value="2.5"/>
                            <ScoreDistribution value="1" recordCount="28.0"/>
                            <ScoreDistribution value="0" recordCount="571.0"/>
                          </Node>
                        </Node>
                      </Node>
                      <Node recordCount="18">
                        <SimplePredicate operator="greaterThan" field="CloudTechnologies_OVP" value="3.5"/>
                        <ScoreDistribution value="1" recordCount="7.0"/>
                        <ScoreDistribution value="0" recordCount="18.0"/>
                      </Node>
                    </Node>
                    <Node recordCount="10">
                      <SimplePredicate operator="greaterThan" field="BusinessFirmographicsParentRevenue" value="34064000.0"/>
                      <ScoreDistribution value="1" recordCount="10.0"/>
                      <ScoreDistribution value="0" recordCount="6.0"/>
                    </Node>
                  </Node>
                  <Node recordCount="130">
                    <SimplePredicate operator="greaterThan" field="BusinessTechnologiesWebServer" value="8.5"/>
                    <Node recordCount="102">
                      <SimplePredicate operator="lessOrEqual" field="CloudTechnologies_WebPortalTechnology" value="3.5"/>
                      <Node recordCount="34">
                        <SimplePredicate operator="lessOrEqual" field="CloudTechnologies_EnterpriseContent_One" value="0.5"/>
                        <Node recordCount="12">
                          <SimplePredicate operator="lessOrEqual" field="CloudTechnologies_CRM_One" value="0.5"/>
                          <ScoreDistribution value="1" recordCount="1.0"/>
                          <ScoreDistribution value="0" recordCount="15.0"/>
                        </Node>
                        <Node recordCount="22">
                          <SimplePredicate operator="greaterThan" field="CloudTechnologies_CRM_One" value="0.5"/>
                          <ScoreDistribution value="1" recordCount="0.0"/>
                          <ScoreDistribution value="0" recordCount="40.0"/>
                        </Node>
                      </Node>
                      <Node recordCount="68">
                        <SimplePredicate operator="greaterThan" field="CloudTechnologies_EnterpriseContent_One" value="0.5"/>
                        <ScoreDistribution value="1" recordCount="0.0"/>
                        <ScoreDistribution value="0" recordCount="114.0"/>
                      </Node>
                    </Node>
                    <Node recordCount="28">
                      <SimplePredicate operator="greaterThan" field="CloudTechnologies_WebPortalTechnology" value="3.5"/>
                      <Node recordCount="12">
                        <SimplePredicate operator="lessOrEqual" field="BusinessTechnologiesAnalytics" value="21.5"/>
                        <ScoreDistribution value="1" recordCount="3.0"/>
                        <ScoreDistribution value="0" recordCount="13.0"/>
                      </Node>
                      <Node recordCount="16">
                        <SimplePredicate operator="greaterThan" field="BusinessTechnologiesAnalytics" value="21.5"/>
                        <ScoreDistribution value="1" recordCount="0.0"/>
                        <ScoreDistribution value="0" recordCount="30.0"/>
                      </Node>
                    </Node>
                  </Node>
                </Node>
              </Node>
              <Node recordCount="10">
                <SimplePredicate operator="greaterThan" field="SemrushAdwordsCost" value="503250.0"/>
                <ScoreDistribution value="1" recordCount="8.0"/>
                <ScoreDistribution value="0" recordCount="8.0"/>
              </Node>
            </Node>
            <Node recordCount="24">
              <SimplePredicate operator="greaterThan" field="CloudTechnologies_SCM" value="18.5"/>
              <ScoreDistribution value="1" recordCount="16.0"/>
              <ScoreDistribution value="0" recordCount="24.0"/>
            </Node>
          </Node>
        </TreeModel>
      </Segment>
      <Segment>
        <True/>
        <TreeModel splitCharacteristic="binarySplit" functionName="classification">
          <MiningSchema>
            <MiningField usageType="active" name="FeatureTermOrderHistory"/>
            <MiningField usageType="active" name="CloudTechnologies_SoftwareBasic_One"/>
            <MiningField usageType="active" name="BusinessTechnologiesWebMaster"/>
            <MiningField usageType="active" name="SemrushOrganicTraffic"/>
            <MiningField usageType="active" name="CloudTechnologies_CRM_Two"/>
            <MiningField usageType="active" name="FeatureJavaScriptCart"/>
            <MiningField usageType="active" name="ExperianCreditRating"/>
            <MiningField usageType="active" name="AssetsStartOfYear"/>
            <MiningField usageType="active" name="FeatureTermCreateAccount"/>
            <MiningField usageType="active" name="CloudTechnologies_Philanthropic"/>
            <MiningField usageType="active" name="BusinessECommerceSite"/>
            <MiningField usageType="active" name="CloudTechnologies_SustainabilityGreenEnterprise"/>
            <MiningField usageType="active" name="FeatureJavaScriptStore"/>
            <MiningField usageType="active" name="CloudTechnologies_RemoteComputerServerSolutions"/>
            <MiningField usageType="active" name="CloudTechnologies_WebPortalTechnology"/>
            <MiningField usageType="active" name="BusinessEstimatedEmployees"/>
            <MiningField usageType="active" name="CloudTechnologies_DataManagementStorageHardware"/>
            <MiningField usageType="active" name="FeatureTermShop"/>
            <MiningField usageType="active" name="AlexaUSUsers"/>
            <MiningField usageType="active" name="FeatureTermReview"/>
            <MiningField usageType="active" name="CloudTechnologies_ChangeManagement"/>
            <MiningField usageType="active" name="CloudTechnologies_GRC"/>
            <MiningField usageType="active" name="SemrushAdwordsTraffic"/>
            <MiningField usageType="active" name="AlexaAUPageViews"/>
            <MiningField usageType="active" name="BusinessTechnologiesSeoHeaders"/>
            <MiningField usageType="active" name="CloudTechnologies_ITGovernance_Two"/>
            <MiningField usageType="active" name="FeatureTermBargain"/>
            <MiningField usageType="active" name="CloudTechnologies_ServiceFieldSupportManagement"/>
            <MiningField usageType="active" name="CloudTechnologies_Procurement"/>
            <MiningField usageType="active" name="CloudTechnologies_VirtualizationServerDataCenter"/>
            <MiningField usageType="active" name="CloudTechnologies_DataCenterSolutions_Two"/>
            <MiningField usageType="active" name="AlexaReachRank"/>
            <MiningField usageType="active" name="FeatureTermReturnPolicy"/>
            <MiningField usageType="active" name="BusinessTechnologiesServer"/>
            <MiningField usageType="active" name="FeatureTermRetail"/>
            <MiningField usageType="active" name="FeatureTermSale"/>
            <MiningField usageType="active" name="CloudTechnologies_ServerTechnologiesSoftware"/>
            <MiningField usageType="active" name="FeatureTermWishList"/>
            <MiningField usageType="active" name="FundingStage"/>
            <MiningField usageType="active" name="FundingAmount"/>
            <MiningField usageType="active" name="BusinessTechnologiesNs"/>
            <MiningField usageType="active" name="BusinessSocialPresence"/>
            <MiningField usageType="active" name="CloudTechnologies_ServerTechnologiesHardware"/>
            <MiningField usageType="active" name="LICompanies_Source_IsMatched"/>
            <MiningField usageType="active" name="FeatureGlobalProduct"/>
            <MiningField usageType="active" name="FeatureTermCustomerService"/>
            <MiningField usageType="active" name="CloudTechnologies_HelpDeskManagement"/>
            <MiningField usageType="active" name="FeatureTermShippingPolicy"/>
            <MiningField usageType="active" name="FeatureJavaScriptBag"/>
            <MiningField usageType="active" name="CloudTechnologies_PPM"/>
            <MiningField usageType="active" name="HPANumPages"/>
            <MiningField usageType="active" name="LE_Jobs_Source_IsMatched"/>
            <MiningField usageType="active" name="CloudTechnologies_CloudService_One"/>
            <MiningField usageType="active" name="AlexaUSRank"/>
            <MiningField usageType="active" name="ModelAction"/>
            <MiningField usageType="active" name="CloudTechnologies_NetworkComputing_One"/>
            <MiningField usageType="active" name="DisposableEmail"/>
            <MiningField usageType="active" name="GovernmentContracts_MostRecent_IsMatched"/>
            <MiningField usageType="active" name="LE_Crunchbase_Source_IsMatched"/>
            <MiningField usageType="active" name="FeatureGlobalBag"/>
            <MiningField usageType="active" name="FeatureTermOrderStatus"/>
            <MiningField usageType="active" name="JobsRecentJobs"/>
            <MiningField usageType="active" name="FeatureInputValueAddToCart"/>
            <MiningField usageType="active" name="CloudTechnologies_AutomatedProcessWorkflowSystems"/>
            <MiningField usageType="active" name="UCCFilingsPresent"/>
            <MiningField usageType="active" name="CloudTechnologies_CloudInfrastructureComputing"/>
            <MiningField usageType="active" name="CloudTechnologies_CommTech_Two"/>
            <MiningField usageType="active" name="BusinessTechnologiesSocialMediaPresence"/>
            <MiningField usageType="active" name="CloudTechnologies_RealEstate"/>
            <MiningField usageType="active" name="FeatureGlobalStore"/>
            <MiningField usageType="active" name="CloudTechnologies_WCMS"/>
            <MiningField usageType="active" name="BusinessTechnologiesParked"/>
            <MiningField usageType="active" name="CloudTechnologies_LegalProfessionalServices"/>
            <MiningField usageType="active" name="FeatureNumDocumentsFetched"/>
            <MiningField usageType="active" name="CloudTechnologies_VerticalMarkets_Two"/>
            <MiningField usageType="active" name="FeatureRefSrcStore"/>
            <MiningField usageType="active" name="CloudTechnologies_ITInfrastructureOperations"/>
            <MiningField usageType="active" name="CloudTechnologies_TravelandExpenseManagement"/>
            <MiningField usageType="active" name="CloudTechnologies_ProjectMgnt_Two"/>
            <MiningField usageType="active" name="CloudTechnologies_Hypervisor"/>
            <MiningField usageType="active" name="ExperianParent_Source_IsMatched"/>
            <MiningField usageType="active" name="CloudTechnologies_SystemAnalyticsMonitoring"/>
            <MiningField usageType="active" name="BusinessTechnologiesMapping"/>
            <MiningField usageType="active" name="CloudTechnologies_SRM"/>
            <MiningField usageType="active" name="BuiltWith_Pivoted_Source_IsMatched"/>
            <MiningField usageType="active" name="UCCFilings"/>
            <MiningField usageType="active" name="LeadSource"/>
            <MiningField usageType="active" name="FeatureTermAddItem"/>
            <MiningField usageType="active" name="CloudTechnologies_DatabaseManagementSoftware"/>
            <MiningField usageType="active" name="CloudTechnologies_PLM"/>
            <MiningField usageType="active" name="DerogatoryIndicator"/>
            <MiningField usageType="active" name="FiftyFiveHundred_Main_Source_IsMatched"/>
            <MiningField usageType="active" name="FeatureJavaScriptShop"/>
            <MiningField usageType="active" name="CloudTechnologies_VisualizationSoftware"/>
            <MiningField usageType="active" name="FeatureJavaScriptBasket"/>
            <MiningField usageType="active" name="CloudTechnologies_ProductivitySltns_One"/>
            <MiningField usageType="active" name="CloudTechnologies_MarketingPerfMgmt_One"/>
            <MiningField usageType="active" name="Feature_Pivoted_Source_IsMatched"/>
            <MiningField usageType="active" name="CloudTechnologies_WebOrntdArch_Two"/>
            <MiningField usageType="active" name="CloudTechnologies_VirtualizationAppDesktop"/>
            <MiningField usageType="active" name="AlexaViewsPerMillion"/>
            <MiningField usageType="active" name="FeatureRefSrcBag"/>
            <MiningField usageType="active" name="SemrushOrganicKeywords"/>
            <MiningField usageType="active" name="AnnualRevenue"/>
            <MiningField usageType="active" name="CloudTechnologies_CRM_One"/>
            <MiningField usageType="active" name="CloudTechnologies_BPM"/>
            <MiningField usageType="active" name="FeatureTermShippingAddress"/>
            <MiningField usageType="active" name="BusinessTechnologiesFramework"/>
            <MiningField usageType="active" name="AlexaRank"/>
            <MiningField usageType="active" name="BusinessTechnologiesAnalytics"/>
            <MiningField usageType="active" name="FeatureTermBillingAddress"/>
            <MiningField usageType="active" name="CloudTechnologies_EBS"/>
            <MiningField usageType="active" name="FiftyFiveHundred_smallFirms_Source_IsMatched"/>
            <MiningField usageType="active" name="CloudTechnologies_AssetPerformanceManagement"/>
            <MiningField usageType="active" name="AlexaCAUsers"/>
            <MiningField usageType="active" name="CloudTechnologies_HardwareOther"/>
            <MiningField usageType="active" name="FeatureTermBuy"/>
            <MiningField usageType="active" name="CloudTechnologies_ManufacturingEngineering"/>
            <MiningField usageType="active" name="FeatureTermSecureOrder"/>
            <MiningField usageType="active" name="CloudTechnologies_EnterpriseContent_Two"/>
            <MiningField usageType="active" name="CloudTechnologies_WebOrntdArch_One"/>
            <MiningField usageType="active" name="CloudTechnologies_AcademicEduMgmtSoftware"/>
            <MiningField usageType="active" name="FeatureTermAddToCart"/>
            <MiningField usageType="active" name="PercentileModel"/>
            <MiningField usageType="active" name="CloudTechnologies_MobileEnterpriseManagement"/>
            <MiningField usageType="active" name="CloudTechnologies_CRM"/>
            <MiningField usageType="active" name="CloudTechnologies_InventoryManagement"/>
            <MiningField usageType="active" name="CloudTechnologies_ECM"/>
            <MiningField usageType="active" name="Facebook_Likes"/>
            <MiningField usageType="active" name="BusinessTechnologiesCdn"/>
            <MiningField usageType="active" name="CloudTechnologies_SoftwareOther"/>
            <MiningField usageType="active" name="BusinessTechnologiesMarketingAutomation"/>
            <MiningField usageType="active" name="HGData_Pivoted_Source_IsMatched"/>
            <MiningField usageType="active" name="CloudTechnologies_EDA"/>
            <MiningField usageType="active" name="CloudTechnologies_HardwareBasic_Two"/>
            <MiningField usageType="active" name="CloudTechnologies_EDI"/>
            <MiningField usageType="active" name="BusinessTechnologiesOpenSourceAdoption"/>
            <MiningField usageType="active" name="CloudTechnologies_MainframeComputers"/>
            <MiningField usageType="active" name="FeatureJavaScriptProduct"/>
            <MiningField usageType="active" name="CloudTechnologies_SystemSecurityServices"/>
            <MiningField usageType="active" name="BusinessFirmographicsParentEmployees"/>
            <MiningField usageType="active" name="Awards_Source_IsMatched"/>
            <MiningField usageType="active" name="Alexa_Source_IsMatched"/>
