<PMML xmlns:xsi="http://www.w3.org/2001/XMLSchema-instance" version="4.2" xmlns="http://www.dmg.org/PMML-4_0">
  <Header description="PLS Random Forest Model"></Header>
  <DataDictionary numberOfFields="107">
    <DataField dataType="double" optype="continuous" name="BankruptcyFiled"/>
    <DataField dataType="double" optype="continuous" name="BusinessAnnualSalesAbs"/>
    <DataField dataType="double" optype="continuous" name="BusinessECommerceSite"/>
    <DataField dataType="double" optype="continuous" name="BusinessEstablishedYear"/>
    <DataField dataType="double" optype="continuous" name="BusinessEstimatedAnnualSales_k"/>
    <DataField dataType="double" optype="continuous" name="BusinessEstimatedEmployees"/>
    <DataField dataType="double" optype="continuous" name="BusinessFirmographicsParentEmployees"/>
    <DataField dataType="double" optype="continuous" name="BusinessFirmographicsParentRevenue"/>
    <DataField dataType="double" optype="continuous" name="BusinessRetirementParticipants"/>
    <DataField dataType="double" optype="continuous" name="BusinessSocialPresence"/>
    <DataField dataType="double" optype="continuous" name="BusinessUrlNumPages"/>
    <DataField dataType="double" optype="continuous" name="BusinessVCFunded"/>
    <DataField dataType="double" optype="continuous" name="DerogatoryIndicator"/>
    <DataField dataType="double" optype="continuous" name="ExperianCreditRating"/>
    <DataField dataType="double" optype="continuous" name="FundingAgency"/>
    <DataField dataType="double" optype="continuous" name="FundingAmount"/>
    <DataField dataType="double" optype="continuous" name="FundingAwardAmount"/>
    <DataField dataType="double" optype="continuous" name="FundingFinanceRound"/>
    <DataField dataType="double" optype="continuous" name="FundingReceived"/>
    <DataField dataType="double" optype="continuous" name="FundingStage"/>
    <DataField dataType="double" optype="continuous" name="Intelliscore"/>
    <DataField dataType="double" optype="continuous" name="JobsRecentJobs"/>
    <DataField dataType="double" optype="continuous" name="JobsTrendString"/>
    <DataField dataType="double" optype="continuous" name="ModelAction"/>
    <DataField dataType="double" optype="continuous" name="PercentileModel"/>
    <DataField dataType="double" optype="continuous" name="UCCFilings"/>
    <DataField dataType="double" optype="continuous" name="UCCFilingsPresent"/>
    <DataField dataType="double" optype="continuous" name="Years_in_Business_Code"/>
    <DataField dataType="double" optype="continuous" name="Non_Profit_Indicator"/>
    <DataField dataType="double" optype="continuous" name="PD_DA_AwardCategory"/>
    <DataField dataType="double" optype="continuous" name="PD_DA_LastSocialActivity_Units"/>
    <DataField dataType="double" optype="continuous" name="PD_DA_MonthsPatentGranted"/>
    <DataField dataType="double" optype="continuous" name="PD_DA_MonthsSinceFundAwardDate"/>
    <DataField dataType="double" optype="continuous" name="PD_DA_PrimarySIC1"/>
    <DataField dataType="double" optype="continuous" name="AnnualRevenue"/>
    <DataField dataType="double" optype="continuous" name="NumberOfEmployees"/>
    <DataField dataType="double" optype="continuous" name="Alexa_MonthsSinceOnline"/>
    <DataField dataType="double" optype="continuous" name="Alexa_Rank"/>
    <DataField dataType="double" optype="continuous" name="Alexa_ReachPerMillion"/>
    <DataField dataType="double" optype="continuous" name="Alexa_ViewsPerMillion"/>
    <DataField dataType="double" optype="continuous" name="Alexa_ViewsPerUser"/>
    <DataField dataType="double" optype="continuous" name="BW_TechTags_Cnt"/>
    <DataField dataType="double" optype="continuous" name="BW_TotalTech_Cnt"/>
    <DataField dataType="double" optype="continuous" name="BW_ads"/>
    <DataField dataType="double" optype="continuous" name="BW_analytics"/>
    <DataField dataType="double" optype="continuous" name="BW_cdn"/>
    <DataField dataType="double" optype="continuous" name="BW_cdns"/>
    <DataField dataType="double" optype="continuous" name="BW_cms"/>
    <DataField dataType="double" optype="continuous" name="BW_docinfo"/>
    <DataField dataType="double" optype="continuous" name="BW_encoding"/>
    <DataField dataType="double" optype="continuous" name="BW_feeds"/>
    <DataField dataType="double" optype="continuous" name="BW_framework"/>
    <DataField dataType="double" optype="continuous" name="BW_hosting"/>
    <DataField dataType="double" optype="continuous" name="BW_javascript"/>
    <DataField dataType="double" optype="continuous" name="BW_mapping"/>
    <DataField dataType="double" optype="continuous" name="BW_media"/>
    <DataField dataType="double" optype="continuous" name="BW_mx"/>
    <DataField dataType="double" optype="continuous" name="BW_ns"/>
    <DataField dataType="double" optype="continuous" name="BW_parked"/>
    <DataField dataType="double" optype="continuous" name="BW_payment"/>
    <DataField dataType="double" optype="continuous" name="BW_seo_headers"/>
    <DataField dataType="double" optype="continuous" name="BW_seo_meta"/>
    <DataField dataType="double" optype="continuous" name="BW_seo_title"/>
    <DataField dataType="double" optype="continuous" name="BW_Server"/>
    <DataField dataType="double" optype="continuous" name="BW_shop"/>
    <DataField dataType="double" optype="continuous" name="BW_ssl"/>
    <DataField dataType="double" optype="continuous" name="BW_Web_Master"/>
    <DataField dataType="double" optype="continuous" name="BW_Web_Server"/>
    <DataField dataType="double" optype="continuous" name="BW_widgets"/>
    <DataField dataType="double" optype="continuous" name="Activity_ClickLink_cnt"/>
    <DataField dataType="double" optype="continuous" name="Activity_VisitWeb_cnt"/>
    <DataField dataType="double" optype="continuous" name="Activity_InterestingMoment_cnt"/>
    <DataField dataType="double" optype="continuous" name="Activity_OpenEmail_cnt"/>
    <DataField dataType="double" optype="continuous" name="Activity_EmailBncedSft_cnt"/>
    <DataField dataType="double" optype="continuous" name="Activity_FillOutForm_cnt"/>
    <DataField dataType="double" optype="continuous" name="Activity_UnsubscrbEmail_cnt"/>
    <DataField dataType="double" optype="continuous" name="Activity_ClickEmail_cnt"/>
    <DataField dataType="double" optype="continuous" name="CloudTechnologies_CloudService_One"/>
    <DataField dataType="double" optype="continuous" name="CloudTechnologies_CloudService_Two"/>
    <DataField dataType="double" optype="continuous" name="CloudTechnologies_CommTech_One"/>
    <DataField dataType="double" optype="continuous" name="CloudTechnologies_CommTech_Two"/>
    <DataField dataType="double" optype="continuous" name="CloudTechnologies_CRM_One"/>
    <DataField dataType="double" optype="continuous" name="CloudTechnologies_CRM_Two"/>
    <DataField dataType="double" optype="continuous" name="CloudTechnologies_EnterpriseApplications_One"/>
    <DataField dataType="double" optype="continuous" name="CloudTechnologies_EnterpriseApplications_Two"/>
    <DataField dataType="double" optype="continuous" name="CloudTechnologies_EnterpriseContent_One"/>
    <DataField dataType="double" optype="continuous" name="CloudTechnologies_EnterpriseContent_Two"/>
    <DataField dataType="double" optype="continuous" name="CloudTechnologies_HardwareBasic_One"/>
    <DataField dataType="double" optype="continuous" name="CloudTechnologies_HardwareBasic_Two"/>
    <DataField dataType="double" optype="continuous" name="CloudTechnologies_ITGovernance_One"/>
    <DataField dataType="double" optype="continuous" name="CloudTechnologies_ITGovernance_Two"/>
    <DataField dataType="double" optype="continuous" name="CloudTechnologies_MarketingPerfMgmt_One"/>
    <DataField dataType="double" optype="continuous" name="CloudTechnologies_MarketingPerfMgmt_Two"/>
    <DataField dataType="double" optype="continuous" name="CloudTechnologies_ProductivitySltns_One"/>
    <DataField dataType="double" optype="continuous" name="CloudTechnologies_ProductivitySltns_Two"/>
    <DataField dataType="double" optype="continuous" name="CloudTechnologies_ProjectMgnt_One"/>
    <DataField dataType="double" optype="continuous" name="CloudTechnologies_ProjectMgnt_Two"/>
    <DataField dataType="double" optype="continuous" name="CloudTechnologies_SoftwareBasic_One"/>
    <DataField dataType="double" optype="continuous" name="CloudTechnologies_SoftwareBasic_Two"/>
    <DataField dataType="double" optype="continuous" name="x2NoTitle"/>
    <DataField dataType="double" optype="continuous" name="x2Assistant"/>
    <DataField dataType="double" optype="continuous" name="x2PartTime"/>
    <DataField dataType="double" optype="continuous" name="x2Technical"/>
    <DataField dataType="double" optype="continuous" name="x2Other"/>
    <DataField dataType="double" optype="continuous" name="x2Manager"/>
    <DataField dataType="double" optype="continuous" name="x2Sales"/>
    <DataField dataType="double" optype="continuous" name="x2HealthCare"/>
  </DataDictionary>
  <MiningModel modelName="randomForestModel" functionName="classification">
    <MiningSchema>
      <MiningField usageType="active" name="BankruptcyFiled"/>
      <MiningField usageType="active" name="BusinessAnnualSalesAbs"/>
      <MiningField usageType="active" name="BusinessECommerceSite"/>
      <MiningField usageType="active" name="BusinessEstablishedYear"/>
      <MiningField usageType="active" name="BusinessEstimatedAnnualSales_k"/>
      <MiningField usageType="active" name="BusinessEstimatedEmployees"/>
      <MiningField usageType="active" name="BusinessFirmographicsParentEmployees"/>
      <MiningField usageType="active" name="BusinessFirmographicsParentRevenue"/>
      <MiningField usageType="active" name="BusinessRetirementParticipants"/>
      <MiningField usageType="active" name="BusinessSocialPresence"/>
      <MiningField usageType="active" name="BusinessUrlNumPages"/>
      <MiningField usageType="active" name="BusinessVCFunded"/>
      <MiningField usageType="active" name="DerogatoryIndicator"/>
      <MiningField usageType="active" name="ExperianCreditRating"/>
      <MiningField usageType="active" name="FundingAgency"/>
      <MiningField usageType="active" name="FundingAmount"/>
      <MiningField usageType="active" name="FundingAwardAmount"/>
      <MiningField usageType="active" name="FundingFinanceRound"/>
      <MiningField usageType="active" name="FundingReceived"/>
      <MiningField usageType="active" name="FundingStage"/>
      <MiningField usageType="active" name="Intelliscore"/>
      <MiningField usageType="active" name="JobsRecentJobs"/>
      <MiningField usageType="active" name="JobsTrendString"/>
      <MiningField usageType="active" name="ModelAction"/>
      <MiningField usageType="active" name="PercentileModel"/>
      <MiningField usageType="active" name="UCCFilings"/>
      <MiningField usageType="active" name="UCCFilingsPresent"/>
      <MiningField usageType="active" name="Years_in_Business_Code"/>
      <MiningField usageType="active" name="Non_Profit_Indicator"/>
      <MiningField usageType="active" name="PD_DA_AwardCategory"/>
      <MiningField usageType="active" name="PD_DA_LastSocialActivity_Units"/>
      <MiningField usageType="active" name="PD_DA_MonthsPatentGranted"/>
      <MiningField usageType="active" name="PD_DA_MonthsSinceFundAwardDate"/>
      <MiningField usageType="active" name="PD_DA_PrimarySIC1"/>
      <MiningField usageType="active" name="AnnualRevenue"/>
      <MiningField usageType="active" name="NumberOfEmployees"/>
      <MiningField usageType="active" name="Alexa_MonthsSinceOnline"/>
      <MiningField usageType="active" name="Alexa_Rank"/>
      <MiningField usageType="active" name="Alexa_ReachPerMillion"/>
      <MiningField usageType="active" name="Alexa_ViewsPerMillion"/>
      <MiningField usageType="active" name="Alexa_ViewsPerUser"/>
      <MiningField usageType="active" name="BW_TechTags_Cnt"/>
      <MiningField usageType="active" name="BW_TotalTech_Cnt"/>
      <MiningField usageType="active" name="BW_ads"/>
      <MiningField usageType="active" name="BW_analytics"/>
      <MiningField usageType="active" name="BW_cdn"/>
      <MiningField usageType="active" name="BW_cdns"/>
      <MiningField usageType="active" name="BW_cms"/>
      <MiningField usageType="active" name="BW_docinfo"/>
      <MiningField usageType="active" name="BW_encoding"/>
      <MiningField usageType="active" name="BW_feeds"/>
      <MiningField usageType="active" name="BW_framework"/>
      <MiningField usageType="active" name="BW_hosting"/>
      <MiningField usageType="active" name="BW_javascript"/>
      <MiningField usageType="active" name="BW_mapping"/>
      <MiningField usageType="active" name="BW_media"/>
      <MiningField usageType="active" name="BW_mx"/>
      <MiningField usageType="active" name="BW_ns"/>
      <MiningField usageType="active" name="BW_parked"/>
      <MiningField usageType="active" name="BW_payment"/>
      <MiningField usageType="active" name="BW_seo_headers"/>
      <MiningField usageType="active" name="BW_seo_meta"/>
      <MiningField usageType="active" name="BW_seo_title"/>
      <MiningField usageType="active" name="BW_Server"/>
      <MiningField usageType="active" name="BW_shop"/>
      <MiningField usageType="active" name="BW_ssl"/>
      <MiningField usageType="active" name="BW_Web_Master"/>
      <MiningField usageType="active" name="BW_Web_Server"/>
      <MiningField usageType="active" name="BW_widgets"/>
      <MiningField usageType="active" name="Activity_ClickLink_cnt"/>
      <MiningField usageType="active" name="Activity_VisitWeb_cnt"/>
      <MiningField usageType="active" name="Activity_InterestingMoment_cnt"/>
      <MiningField usageType="active" name="Activity_OpenEmail_cnt"/>
      <MiningField usageType="active" name="Activity_EmailBncedSft_cnt"/>
      <MiningField usageType="active" name="Activity_FillOutForm_cnt"/>
      <MiningField usageType="active" name="Activity_UnsubscrbEmail_cnt"/>
      <MiningField usageType="active" name="Activity_ClickEmail_cnt"/>
      <MiningField usageType="active" name="CloudTechnologies_CloudService_One"/>
      <MiningField usageType="active" name="CloudTechnologies_CloudService_Two"/>
      <MiningField usageType="active" name="CloudTechnologies_CommTech_One"/>
      <MiningField usageType="active" name="CloudTechnologies_CommTech_Two"/>
      <MiningField usageType="active" name="CloudTechnologies_CRM_One"/>
      <MiningField usageType="active" name="CloudTechnologies_CRM_Two"/>
      <MiningField usageType="active" name="CloudTechnologies_EnterpriseApplications_One"/>
      <MiningField usageType="active" name="CloudTechnologies_EnterpriseApplications_Two"/>
      <MiningField usageType="active" name="CloudTechnologies_EnterpriseContent_One"/>
      <MiningField usageType="active" name="CloudTechnologies_EnterpriseContent_Two"/>
      <MiningField usageType="active" name="CloudTechnologies_HardwareBasic_One"/>
      <MiningField usageType="active" name="CloudTechnologies_HardwareBasic_Two"/>
      <MiningField usageType="active" name="CloudTechnologies_ITGovernance_One"/>
      <MiningField usageType="active" name="CloudTechnologies_ITGovernance_Two"/>
      <MiningField usageType="active" name="CloudTechnologies_MarketingPerfMgmt_One"/>
      <MiningField usageType="active" name="CloudTechnologies_MarketingPerfMgmt_Two"/>
      <MiningField usageType="active" name="CloudTechnologies_ProductivitySltns_One"/>
      <MiningField usageType="active" name="CloudTechnologies_ProductivitySltns_Two"/>
      <MiningField usageType="active" name="CloudTechnologies_ProjectMgnt_One"/>
      <MiningField usageType="active" name="CloudTechnologies_ProjectMgnt_Two"/>
      <MiningField usageType="active" name="CloudTechnologies_SoftwareBasic_One"/>
      <MiningField usageType="active" name="CloudTechnologies_SoftwareBasic_Two"/>
      <MiningField usageType="active" name="x2NoTitle"/>
      <MiningField usageType="active" name="x2Assistant"/>
      <MiningField usageType="active" name="x2PartTime"/>
      <MiningField usageType="active" name="x2Technical"/>
      <MiningField usageType="active" name="x2Other"/>
      <MiningField usageType="active" name="x2Manager"/>
      <MiningField usageType="active" name="x2Sales"/>
      <MiningField usageType="active" name="x2HealthCare"/>
      <MiningField usageType="predicted" name="P1_Event"/>
    </MiningSchema>
    <Segmentation multipleModelMethod="average">
      <Segment>
        <True/>
        <TreeModel splitCharacteristic="binarySplit" functionName="classification">
          <MiningSchema>
            <MiningField usageType="active" name="BankruptcyFiled"/>
            <MiningField usageType="active" name="BusinessAnnualSalesAbs"/>
            <MiningField usageType="active" name="BusinessECommerceSite"/>
            <MiningField usageType="active" name="BusinessEstablishedYear"/>
            <MiningField usageType="active" name="BusinessEstimatedAnnualSales_k"/>
            <MiningField usageType="active" name="BusinessEstimatedEmployees"/>
            <MiningField usageType="active" name="BusinessFirmographicsParentEmployees"/>
            <MiningField usageType="active" name="BusinessFirmographicsParentRevenue"/>
            <MiningField usageType="active" name="BusinessRetirementParticipants"/>
            <MiningField usageType="active" name="BusinessSocialPresence"/>
            <MiningField usageType="active" name="BusinessUrlNumPages"/>
            <MiningField usageType="active" name="BusinessVCFunded"/>
            <MiningField usageType="active" name="DerogatoryIndicator"/>
            <MiningField usageType="active" name="ExperianCreditRating"/>
            <MiningField usageType="active" name="FundingAgency"/>
            <MiningField usageType="active" name="FundingAmount"/>
            <MiningField usageType="active" name="FundingAwardAmount"/>
            <MiningField usageType="active" name="FundingFinanceRound"/>
            <MiningField usageType="active" name="FundingReceived"/>
            <MiningField usageType="active" name="FundingStage"/>
            <MiningField usageType="active" name="Intelliscore"/>
            <MiningField usageType="active" name="JobsRecentJobs"/>
            <MiningField usageType="active" name="JobsTrendString"/>
            <MiningField usageType="active" name="ModelAction"/>
            <MiningField usageType="active" name="PercentileModel"/>
            <MiningField usageType="active" name="UCCFilings"/>
            <MiningField usageType="active" name="UCCFilingsPresent"/>
            <MiningField usageType="active" name="Years_in_Business_Code"/>
            <MiningField usageType="active" name="Non_Profit_Indicator"/>
            <MiningField usageType="active" name="PD_DA_AwardCategory"/>
            <MiningField usageType="active" name="PD_DA_LastSocialActivity_Units"/>
            <MiningField usageType="active" name="PD_DA_MonthsPatentGranted"/>
            <MiningField usageType="active" name="PD_DA_MonthsSinceFundAwardDate"/>
            <MiningField usageType="active" name="PD_DA_PrimarySIC1"/>
            <MiningField usageType="active" name="AnnualRevenue"/>
            <MiningField usageType="active" name="NumberOfEmployees"/>
            <MiningField usageType="active" name="Alexa_MonthsSinceOnline"/>
            <MiningField usageType="active" name="Alexa_Rank"/>
            <MiningField usageType="active" name="Alexa_ReachPerMillion"/>
            <MiningField usageType="active" name="Alexa_ViewsPerMillion"/>
            <MiningField usageType="active" name="Alexa_ViewsPerUser"/>
            <MiningField usageType="active" name="BW_TechTags_Cnt"/>
            <MiningField usageType="active" name="BW_TotalTech_Cnt"/>
            <MiningField usageType="active" name="BW_ads"/>
            <MiningField usageType="active" name="BW_analytics"/>
            <MiningField usageType="active" name="BW_cdn"/>
            <MiningField usageType="active" name="BW_cdns"/>
            <MiningField usageType="active" name="BW_cms"/>
            <MiningField usageType="active" name="BW_docinfo"/>
            <MiningField usageType="active" name="BW_encoding"/>
            <MiningField usageType="active" name="BW_feeds"/>
            <MiningField usageType="active" name="BW_framework"/>
            <MiningField usageType="active" name="BW_hosting"/>
            <MiningField usageType="active" name="BW_javascript"/>
            <MiningField usageType="active" name="BW_mapping"/>
            <MiningField usageType="active" name="BW_media"/>
            <MiningField usageType="active" name="BW_mx"/>
            <MiningField usageType="active" name="BW_ns"/>
            <MiningField usageType="active" name="BW_parked"/>
            <MiningField usageType="active" name="BW_payment"/>
            <MiningField usageType="active" name="BW_seo_headers"/>
            <MiningField usageType="active" name="BW_seo_meta"/>
            <MiningField usageType="active" name="BW_seo_title"/>
            <MiningField usageType="active" name="BW_Server"/>
            <MiningField usageType="active" name="BW_shop"/>
            <MiningField usageType="active" name="BW_ssl"/>
            <MiningField usageType="active" name="BW_Web_Master"/>
            <MiningField usageType="active" name="BW_Web_Server"/>
            <MiningField usageType="active" name="BW_widgets"/>
            <MiningField usageType="active" name="Activity_ClickLink_cnt"/>
            <MiningField usageType="active" name="Activity_VisitWeb_cnt"/>
            <MiningField usageType="active" name="Activity_InterestingMoment_cnt"/>
            <MiningField usageType="active" name="Activity_OpenEmail_cnt"/>
            <MiningField usageType="active" name="Activity_EmailBncedSft_cnt"/>
            <MiningField usageType="active" name="Activity_FillOutForm_cnt"/>
            <MiningField usageType="active" name="Activity_UnsubscrbEmail_cnt"/>
            <MiningField usageType="active" name="Activity_ClickEmail_cnt"/>
            <MiningField usageType="active" name="CloudTechnologies_CloudService_One"/>
            <MiningField usageType="active" name="CloudTechnologies_CloudService_Two"/>
            <MiningField usageType="active" name="CloudTechnologies_CommTech_One"/>
            <MiningField usageType="active" name="CloudTechnologies_CommTech_Two"/>
            <MiningField usageType="active" name="CloudTechnologies_CRM_One"/>
            <MiningField usageType="active" name="CloudTechnologies_CRM_Two"/>
            <MiningField usageType="active" name="CloudTechnologies_EnterpriseApplications_One"/>
            <MiningField usageType="active" name="CloudTechnologies_EnterpriseApplications_Two"/>
            <MiningField usageType="active" name="CloudTechnologies_EnterpriseContent_One"/>
            <MiningField usageType="active" name="CloudTechnologies_EnterpriseContent_Two"/>
            <MiningField usageType="active" name="CloudTechnologies_HardwareBasic_One"/>
            <MiningField usageType="active" name="CloudTechnologies_HardwareBasic_Two"/>
            <MiningField usageType="active" name="CloudTechnologies_ITGovernance_One"/>
            <MiningField usageType="active" name="CloudTechnologies_ITGovernance_Two"/>
            <MiningField usageType="active" name="CloudTechnologies_MarketingPerfMgmt_One"/>
            <MiningField usageType="active" name="CloudTechnologies_MarketingPerfMgmt_Two"/>
            <MiningField usageType="active" name="CloudTechnologies_ProductivitySltns_One"/>
            <MiningField usageType="active" name="CloudTechnologies_ProductivitySltns_Two"/>
            <MiningField usageType="active" name="CloudTechnologies_ProjectMgnt_One"/>
            <MiningField usageType="active" name="CloudTechnologies_ProjectMgnt_Two"/>
            <MiningField usageType="active" name="CloudTechnologies_SoftwareBasic_One"/>
            <MiningField usageType="active" name="CloudTechnologies_SoftwareBasic_Two"/>
            <MiningField usageType="active" name="x2NoTitle"/>
            <MiningField usageType="active" name="x2Assistant"/>
            <MiningField usageType="active" name="x2PartTime"/>
            <MiningField usageType="active" name="x2Technical"/>
            <MiningField usageType="active" name="x2Other"/>
            <MiningField usageType="active" name="x2Manager"/>
            <MiningField usageType="active" name="x2Sales"/>
            <MiningField usageType="active" name="x2HealthCare"/>
            <MiningField usageType="predicted" name="P1_Event"/>
          </MiningSchema>
          <Node recordCount="3784">
            <True/>
            <Node recordCount="2409">
              <SimplePredicate operator="lessOrEqual" field="BW_widgets" value="4.31598520279"/>
              <Node recordCount="2399">
                <SimplePredicate operator="lessOrEqual" field="Activity_VisitWeb_cnt" value="5.5"/>
                <Node recordCount="2389">
                  <SimplePredicate operator="lessOrEqual" field="Alexa_ViewsPerUser" value="14.5"/>
                  <Node recordCount="497">
                    <SimplePredicate operator="lessOrEqual" field="Alexa_ViewsPerMillion" value="0.0149999996647"/>
                    <Node recordCount="434">
                      <SimplePredicate operator="lessOrEqual" field="Activity_OpenEmail_cnt" value="9.5"/>
                      <Node recordCount="419">
                        <SimplePredicate operator="lessOrEqual" field="CloudTechnologies_CommTech_Two" value="1.7122092247"/>
                        <Node recordCount="407">
                          <SimplePredicate operator="lessOrEqual" field="BW_TotalTech_Cnt" value="56.5"/>
                          <Node recordCount="163">
                            <SimplePredicate operator="lessOrEqual" field="CloudTechnologies_EnterpriseApplications_One" value="1.5"/>
                            <ScoreDistribution value="1" recordCount="0.0"/>
                            <ScoreDistribution value="0" recordCount="279.0"/>
                          </Node>
                          <Node recordCount="244">
                            <SimplePredicate operator="greaterThan" field="CloudTechnologies_EnterpriseApplications_One" value="1.5"/>
                            <ScoreDistribution value="1" recordCount="9.0"/>
                            <ScoreDistribution value="0" recordCount="364.0"/>
                          </Node>
                        </Node>
                        <Node recordCount="12">
                          <SimplePredicate operator="greaterThan" field="BW_TotalTech_Cnt" value="56.5"/>
                          <ScoreDistribution value="1" recordCount="4.0"/>
                          <ScoreDistribution value="0" recordCount="18.0"/>
                        </Node>
                      </Node>
                      <Node recordCount="15">
                        <SimplePredicate operator="greaterThan" field="CloudTechnologies_CommTech_Two" value="1.7122092247"/>
                        <ScoreDistribution value="1" recordCount="5.0"/>
                        <ScoreDistribution value="0" recordCount="24.0"/>
                      </Node>
                    </Node>
                    <Node recordCount="63">
                      <SimplePredicate operator="greaterThan" field="Activity_OpenEmail_cnt" value="9.5"/>
                      <Node recordCount="25">
                        <SimplePredicate operator="lessOrEqual" field="Alexa_Rank" value="3176159.5"/>
                        <Node recordCount="15">
                          <SimplePredicate operator="lessOrEqual" field="CloudTechnologies_EnterpriseContent_One" value="0.5"/>
                          <ScoreDistribution value="1" recordCount="6.0"/>
                          <ScoreDistribution value="0" recordCount="19.0"/>
                        </Node>
                        <Node recordCount="10">
                          <SimplePredicate operator="greaterThan" field="CloudTechnologies_EnterpriseContent_One" value="0.5"/>
                          <ScoreDistribution value="1" recordCount="7.0"/>
                          <ScoreDistribution value="0" recordCount="7.0"/>
                        </Node>
                      </Node>
                      <Node recordCount="38">
                        <SimplePredicate operator="greaterThan" field="Alexa_Rank" value="3176159.5"/>
                        <Node recordCount="12">
                          <SimplePredicate operator="lessOrEqual" field="BW_seo_meta" value="1.5"/>
                          <ScoreDistribution value="1" recordCount="1.0"/>
                          <ScoreDistribution value="0" recordCount="16.0"/>
                        </Node>
                        <Node recordCount="26">
                          <SimplePredicate operator="greaterThan" field="BW_seo_meta" value="1.5"/>
                          <ScoreDistribution value="1" recordCount="0.0"/>
                          <ScoreDistribution value="0" recordCount="39.0"/>
                        </Node>
                      </Node>
                    </Node>
                  </Node>
                  <Node recordCount="1892">
                    <SimplePredicate operator="greaterThan" field="Alexa_ViewsPerMillion" value="0.0149999996647"/>
                    <Node recordCount="1405">
                      <SimplePredicate operator="lessOrEqual" field="BusinessEstablishedYear" value="1992.5"/>
                      <Node recordCount="56">
                        <SimplePredicate operator="lessOrEqual" field="AnnualRevenue" value="160350000.0"/>
                        <Node recordCount="15">
                          <SimplePredicate operator="lessOrEqual" field="Activity_InterestingMoment_cnt" value="1.5"/>
                          <ScoreDistribution value="1" recordCount="3.0"/>
                          <ScoreDistribution value="0" recordCount="20.0"/>
                        </Node>
                        <Node recordCount="41">
                          <SimplePredicate operator="greaterThan" field="Activity_InterestingMoment_cnt" value="1.5"/>
                          <Node recordCount="10">
                            <SimplePredicate operator="lessOrEqual" field="BusinessFirmographicsParentRevenue" value="947440.5"/>
                            <ScoreDistribution value="1" recordCount="1.0"/>
                            <ScoreDistribution value="0" recordCount="15.0"/>
                          </Node>
                          <Node recordCount="31">
                            <SimplePredicate operator="greaterThan" field="BusinessFirmographicsParentRevenue" value="947440.5"/>
                            <ScoreDistribution value="1" recordCount="0.0"/>
                            <ScoreDistribution value="0" recordCount="45.0"/>
                          </Node>
                        </Node>
                      </Node>
                      <Node recordCount="1349">
                        <SimplePredicate operator="greaterThan" field="AnnualRevenue" value="160350000.0"/>
                        <Node recordCount="1333">
                          <SimplePredicate operator="lessOrEqual" field="BW_TechTags_Cnt" value="20.5"/>
                          <Node recordCount="1294">
                            <SimplePredicate operator="lessOrEqual" field="BusinessEstimatedEmployees" value="17050.0"/>
                            <ScoreDistribution value="1" recordCount="5.0"/>
                            <ScoreDistribution value="0" recordCount="2000.0"/>
                          </Node>
                          <Node recordCount="39">
                            <SimplePredicate operator="greaterThan" field="BusinessEstimatedEmployees" value="17050.0"/>
                            <ScoreDistribution value="1" recordCount="3.0"/>
                            <ScoreDistribution value="0" recordCount="64.0"/>
                          </Node>
                        </Node>
                        <Node recordCount="16">
                          <SimplePredicate operator="greaterThan" field="BW_TechTags_Cnt" value="20.5"/>
                          <ScoreDistribution value="1" recordCount="1.0"/>
                          <ScoreDistribution value="0" recordCount="23.0"/>
                        </Node>
                      </Node>
                    </Node>
                    <Node recordCount="487">
                      <SimplePredicate operator="greaterThan" field="BusinessEstablishedYear" value="1992.5"/>
                      <Node recordCount="14">
                        <SimplePredicate operator="lessOrEqual" field="BW_seo_title" value="0.5"/>
                        <ScoreDistribution value="1" recordCount="3.0"/>
                        <ScoreDistribution value="0" recordCount="16.0"/>
                      </Node>
                      <Node recordCount="473">
                        <SimplePredicate operator="greaterThan" field="BW_seo_title" value="0.5"/>
                        <Node recordCount="454">
                          <SimplePredicate operator="lessOrEqual" field="BW_cdn" value="3.5"/>
                          <Node recordCount="419">
                            <SimplePredicate operator="lessOrEqual" field="CloudTechnologies_CloudService_One" value="4.5"/>
                            <ScoreDistribution value="1" recordCount="12.0"/>
                            <ScoreDistribution value="0" recordCount="668.0"/>
                          </Node>
                          <Node recordCount="35">
                            <SimplePredicate operator="greaterThan" field="CloudTechnologies_CloudService_One" value="4.5"/>
                            <ScoreDistribution value="1" recordCount="4.0"/>
                            <ScoreDistribution value="0" recordCount="45.0"/>
                          </Node>
                        </Node>
                        <Node recordCount="19">
                          <SimplePredicate operator="greaterThan" field="BW_cdn" value="3.5"/>
                          <ScoreDistribution value="1" recordCount="3.0"/>
                          <ScoreDistribution value="0" recordCount="24.0"/>
                        </Node>
                      </Node>
                    </Node>
                  </Node>
                </Node>
                <Node recordCount="10">
                  <SimplePredicate operator="greaterThan" field="Alexa_ViewsPerUser" value="14.5"/>
                  <ScoreDistribution value="1" recordCount="7.0"/>
                  <ScoreDistribution value="0" recordCount="8.0"/>
                </Node>
              </Node>
              <Node recordCount="10">
                <SimplePredicate operator="greaterThan" field="Activity_VisitWeb_cnt" value="5.5"/>
                <ScoreDistribution value="1" recordCount="3.0"/>
                <ScoreDistribution value="0" recordCount="16.0"/>
              </Node>
            </Node>
            <Node recordCount="1375">
              <SimplePredicate operator="greaterThan" field="BW_widgets" value="4.31598520279"/>
              <Node recordCount="1331">
                <SimplePredicate operator="lessOrEqual" field="Activity_EmailBncedSft_cnt" value="7.5"/>
                <Node recordCount="378">
                  <SimplePredicate operator="lessOrEqual" field="Alexa_ReachPerMillion" value="12.3500003815"/>
                  <Node recordCount="343">
                    <SimplePredicate operator="lessOrEqual" field="BusinessEstablishedYear" value="2008.5"/>
                    <Node recordCount="333">
                      <SimplePredicate operator="lessOrEqual" field="Alexa_ReachPerMillion" value="11.4499998093"/>
                      <Node recordCount="306">
                        <SimplePredicate operator="lessOrEqual" field="BW_cdns" value="0.0111524164677"/>
                        <Node recordCount="168">
                          <SimplePredicate operator="lessOrEqual" field="Alexa_Rank" value="478385.0"/>
                          <Node recordCount="153">
                            <SimplePredicate operator="lessOrEqual" field="Activity_OpenEmail_cnt" value="8.5"/>
                            <ScoreDistribution value="1" recordCount="1.0"/>
                            <ScoreDistribution value="0" recordCount="240.0"/>
                          </Node>
                          <Node recordCount="15">
                            <SimplePredicate operator="greaterThan" field="Activity_OpenEmail_cnt" value="8.5"/>
                            <ScoreDistribution value="1" recordCount="2.0"/>
                            <ScoreDistribution value="0" recordCount="22.0"/>
                          </Node>
                        </Node>
                        <Node recordCount="138">
                          <SimplePredicate operator="greaterThan" field="Alexa_Rank" value="478385.0"/>
                          <Node recordCount="92">
                            <SimplePredicate operator="lessOrEqual" field="BW_TechTags_Cnt" value="18.5"/>
                            <ScoreDistribution value="1" recordCount="1.0"/>
                            <ScoreDistribution value="0" recordCount="145.0"/>
                          </Node>
                          <Node recordCount="46">
                            <SimplePredicate operator="greaterThan" field="BW_TechTags_Cnt" value="18.5"/>
                            <ScoreDistribution value="1" recordCount="10.0"/>
                            <ScoreDistribution value="0" recordCount="58.0"/>
                          </Node>
                        </Node>
                      </Node>
                      <Node recordCount="27">
                        <SimplePredicate operator="greaterThan" field="BW_cdns" value="0.0111524164677"/>
                        <Node recordCount="14">
                          <SimplePredicate operator="lessOrEqual" field="Activity_OpenEmail_cnt" value="4.36507940292"/>
                          <ScoreDistribution value="1" recordCount="2.0"/>
                          <ScoreDistribution value="0" recordCount="20.0"/>
                        </Node>
                        <Node recordCount="13">
                          <SimplePredicate operator="greaterThan" field="Activity_OpenEmail_cnt" value="4.36507940292"/>
                          <ScoreDistribution value="1" recordCount="5.0"/>
                          <ScoreDistribution value="0" recordCount="13.0"/>
                        </Node>
                      </Node>
                    </Node>
                    <Node recordCount="10">
                      <SimplePredicate operator="greaterThan" field="Alexa_ReachPerMillion" value="11.4499998093"/>
                      <ScoreDistribution value="1" recordCount="9.0"/>
                      <ScoreDistribution value="0" recordCount="9.0"/>
                    </Node>
                  </Node>
                  <Node recordCount="35">
                    <SimplePredicate operator="greaterThan" field="BusinessEstablishedYear" value="2008.5"/>
                    <Node recordCount="13">
                      <SimplePredicate operator="lessOrEqual" field="BW_mx" value="2.5"/>
                      <ScoreDistribution value="1" recordCount="0.0"/>
                      <ScoreDistribution value="0" recordCount="21.0"/>
                    </Node>
                    <Node recordCount="22">
                      <SimplePredicate operator="greaterThan" field="BW_mx" value="2.5"/>
                      <ScoreDistribution value="1" recordCount="20.0"/>
                      <ScoreDistribution value="0" recordCount="14.0"/>
                    </Node>
                  </Node>
                </Node>
                <Node recordCount="953">
                  <SimplePredicate operator="greaterThan" field="Alexa_ReachPerMillion" value="12.3500003815"/>
                  <Node recordCount="868">
                    <SimplePredicate operator="lessOrEqual" field="BW_TotalTech_Cnt" value="220.0"/>
                    <Node recordCount="10">
                      <SimplePredicate operator="lessOrEqual" field="Alexa_ViewsPerUser" value="1.69000005722"/>
                      <ScoreDistribution value="1" recordCount="3.0"/>
                      <ScoreDistribution value="0" recordCount="11.0"/>
                    </Node>
                    <Node recordCount="858">
                      <SimplePredicate operator="greaterThan" field="Alexa_ViewsPerUser" value="1.69000005722"/>
                      <Node recordCount="64">
                        <SimplePredicate operator="lessOrEqual" field="Intelliscore" value="17.5"/>
                        <Node recordCount="10">
                          <SimplePredicate operator="lessOrEqual" field="CloudTechnologies_MarketingPerfMgmt_One" value="0.5"/>
                          <ScoreDistribution value="1" recordCount="3.0"/>
                          <ScoreDistribution value="0" recordCount="12.0"/>
                        </Node>
                        <Node recordCount="54">
                          <SimplePredicate operator="greaterThan" field="CloudTechnologies_MarketingPerfMgmt_One" value="0.5"/>
                          <Node recordCount="14">
                            <SimplePredicate operator="lessOrEqual" field="BusinessEstimatedEmployees" value="3.5"/>
                            <ScoreDistribution value="1" recordCount="3.0"/>
                            <ScoreDistribution value="0" recordCount="23.0"/>
                          </Node>
                          <Node recordCount="40">
                            <SimplePredicate operator="greaterThan" field="BusinessEstimatedEmployees" value="3.5"/>
                            <ScoreDistribution value="1" recordCount="0.0"/>
                            <ScoreDistribution value="0" recordCount="56.0"/>
                          </Node>
                        </Node>
                      </Node>
                      <Node recordCount="794">
                        <SimplePredicate operator="greaterThan" field="Intelliscore" value="17.5"/>
                        <Node recordCount="747">
                          <SimplePredicate operator="lessOrEqual" field="NumberOfEmployees" value="29688.0"/>
                          <Node recordCount="65">
                            <SimplePredicate operator="lessOrEqual" field="CloudTechnologies_SoftwareBasic_Two" value="1.5"/>
                            <ScoreDistribution value="1" recordCount="3.0"/>
                            <ScoreDistribution value="0" recordCount="90.0"/>
                          </Node>
                          <Node recordCount="682">
                            <SimplePredicate operator="greaterThan" field="CloudTechnologies_SoftwareBasic_Two" value="1.5"/>
                            <ScoreDistribution value="1" recordCount="10.0"/>
                            <ScoreDistribution value="0" recordCount="1119.0"/>
                          </Node>
                        </Node>
                        <Node recordCount="47">
                          <SimplePredicate operator="greaterThan" field="NumberOfEmployees" value="29688.0"/>
                          <Node recordCount="10">
                            <SimplePredicate operator="lessOrEqual" field="BW_docinfo" value="20.0"/>
                            <ScoreDistribution value="1" recordCount="3.0"/>
                            <ScoreDistribution value="0" recordCount="11.0"/>
                          </Node>
                          <Node recordCount="37">
                            <SimplePredicate operator="greaterThan" field="BW_docinfo" value="20.0"/>
                            <ScoreDistribution value="1" recordCount="0.0"/>
                            <ScoreDistribution value="0" recordCount="69.0"/>
                          </Node>
                        </Node>
                      </Node>
                    </Node>
                  </Node>
                  <Node recordCount="85">
                    <SimplePredicate operator="greaterThan" field="BW_TotalTech_Cnt" value="220.0"/>
                    <Node recordCount="46">
                      <SimplePredicate operator="lessOrEqual" field="CloudTechnologies_CloudService_Two" value="5.5"/>
                      <Node recordCount="13">
                        <SimplePredicate operator="lessOrEqual" field="BusinessVCFunded" value="1615447680.0"/>
                        <ScoreDistribution value="1" recordCount="1.0"/>
                        <ScoreDistribution value="0" recordCount="15.0"/>
                      </Node>
                      <Node recordCount="33">
                        <SimplePredicate operator="greaterThan" field="BusinessVCFunded" value="1615447680.0"/>
                        <ScoreDistribution value="1" recordCount="0.0"/>
                        <ScoreDistribution value="0" recordCount="50.0"/>
                      </Node>
                    </Node>
                    <Node recordCount="39">
                      <SimplePredicate operator="greaterThan" field="CloudTechnologies_CloudService_Two" value="5.5"/>
                      <Node recordCount="24">
                        <SimplePredicate operator="lessOrEqual" field="BusinessUrlNumPages" value="2505.0"/>
                        <ScoreDistribution value="1" recordCount="3.0"/>
                        <ScoreDistribution value="0" recordCount="36.0"/>
                      </Node>
                      <Node recordCount="15">
                        <SimplePredicate operator="greaterThan" field="BusinessUrlNumPages" value="2505.0"/>
                        <ScoreDistribution value="1" recordCount="6.0"/>
                        <ScoreDistribution value="0" recordCount="17.0"/>
                      </Node>
                    </Node>
                  </Node>
                </Node>
              </Node>
              <Node recordCount="44">
                <SimplePredicate operator="greaterThan" field="Activity_EmailBncedSft_cnt" value="7.5"/>
                <Node recordCount="18">
                  <SimplePredicate operator="lessOrEqual" field="BusinessFirmographicsParentRevenue" value="498256.0"/>
                  <ScoreDistribution value="1" recordCount="14.0"/>
                  <ScoreDistribution value="0" recordCount="17.0"/>
                </Node>
                <Node recordCount="26">
                  <SimplePredicate operator="greaterThan" field="BusinessFirmographicsParentRevenue" value="498256.0"/>
                  <Node recordCount="15">
                    <SimplePredicate operator="lessOrEqual" field="BW_cms" value="1.66914498806"/>
                    <ScoreDistribution value="1" recordCount="0.0"/>
                    <ScoreDistribution value="0" recordCount="26.0"/>
                  </Node>
                  <Node recordCount="11">
                    <SimplePredicate operator="greaterThan" field="BW_cms" value="1.66914498806"/>
                    <ScoreDistribution value="1" recordCount="1.0"/>
                    <ScoreDistribution value="0" recordCount="19.0"/>
                  </Node>
                </Node>
              </Node>
            </Node>
          </Node>
        </TreeModel>
      </Segment>
      <Segment>
        <True/>
        <TreeModel splitCharacteristic="binarySplit" functionName="classification">
          <MiningSchema>
            <MiningField usageType="active" name="BankruptcyFiled"/>
            <MiningField usageType="active" name="BusinessAnnualSalesAbs"/>
            <MiningField usageType="active" name="BusinessECommerceSite"/>
            <MiningField usageType="active" name="BusinessEstablishedYear"/>
            <MiningField usageType="active" name="BusinessEstimatedAnnualSales_k"/>
            <MiningField usageType="active" name="BusinessEstimatedEmployees"/>
            <MiningField usageType="active" name="BusinessFirmographicsParentEmployees"/>
            <MiningField usageType="active" name="BusinessFirmographicsParentRevenue"/>
            <MiningField usageType="active" name="BusinessRetirementParticipants"/>
            <MiningField usageType="active" name="BusinessSocialPresence"/>
            <MiningField usageType="active" name="BusinessUrlNumPages"/>
            <MiningField usageType="active" name="BusinessVCFunded"/>
            <MiningField usageType="active" name="DerogatoryIndicator"/>
            <MiningField usageType="active" name="ExperianCreditRating"/>
            <MiningField usageType="active" name="FundingAgency"/>
            <MiningField usageType="active" name="FundingAmount"/>
            <MiningField usageType="active" name="FundingAwardAmount"/>
            <MiningField usageType="active" name="FundingFinanceRound"/>
            <MiningField usageType="active" name="FundingReceived"/>
            <MiningField usageType="active" name="FundingStage"/>
            <MiningField usageType="active" name="Intelliscore"/>
            <MiningField usageType="active" name="JobsRecentJobs"/>
            <MiningField usageType="active" name="JobsTrendString"/>
            <MiningField usageType="active" name="ModelAction"/>
            <MiningField usageType="active" name="PercentileModel"/>
            <MiningField usageType="active" name="UCCFilings"/>
            <MiningField usageType="active" name="UCCFilingsPresent"/>
            <MiningField usageType="active" name="Years_in_Business_Code"/>
            <MiningField usageType="active" name="Non_Profit_Indicator"/>
            <MiningField usageType="active" name="PD_DA_AwardCategory"/>
            <MiningField usageType="active" name="PD_DA_LastSocialActivity_Units"/>
            <MiningField usageType="active" name="PD_DA_MonthsPatentGranted"/>
            <MiningField usageType="active" name="PD_DA_MonthsSinceFundAwardDate"/>
            <MiningField usageType="active" name="PD_DA_PrimarySIC1"/>
            <MiningField usageType="active" name="AnnualRevenue"/>
            <MiningField usageType="active" name="NumberOfEmployees"/>
            <MiningField usageType="active" name="Alexa_MonthsSinceOnline"/>
            <MiningField usageType="active" name="Alexa_Rank"/>
            <MiningField usageType="active" name="Alexa_ReachPerMillion"/>
            <MiningField usageType="active" name="Alexa_ViewsPerMillion"/>
            <MiningField usageType="active" name="Alexa_ViewsPerUser"/>
            <MiningField usageType="active" name="BW_TechTags_Cnt"/>
            <MiningField usageType="active" name="BW_TotalTech_Cnt"/>
            <MiningField usageType="active" name="BW_ads"/>
            <MiningField usageType="active" name="BW_analytics"/>
            <MiningField usageType="active" name="BW_cdn"/>
            <MiningField usageType="active" name="BW_cdns"/>
            <MiningField usageType="active" name="BW_cms"/>
            <MiningField usageType="active" name="BW_docinfo"/>
            <MiningField usageType="active" name="BW_encoding"/>
            <MiningField usageType="active" name="BW_feeds"/>
            <MiningField usageType="active" name="BW_framework"/>
            <MiningField usageType="active" name="BW_hosting"/>
            <MiningField usageType="active" name="BW_javascript"/>
            <MiningField usageType="active" name="BW_mapping"/>
            <MiningField usageType="active" name="BW_media"/>
            <MiningField usageType="active" name="BW_mx"/>
            <MiningField usageType="active" name="BW_ns"/>
            <MiningField usageType="active" name="BW_parked"/>
            <MiningField usageType="active" name="BW_payment"/>
            <MiningField usageType="active" name="BW_seo_headers"/>
            <MiningField usageType="active" name="BW_seo_meta"/>
            <MiningField usageType="active" name="BW_seo_title"/>
            <MiningField usageType="active" name="BW_Server"/>
            <MiningField usageType="active" name="BW_shop"/>
            <MiningField usageType="active" name="BW_ssl"/>
            <MiningField usageType="active" name="BW_Web_Master"/>
            <MiningField usageType="active" name="BW_Web_Server"/>
            <MiningField usageType="active" name="BW_widgets"/>
            <MiningField usageType="active" name="Activity_ClickLink_cnt"/>
            <MiningField usageType="active" name="Activity_VisitWeb_cnt"/>
            <MiningField usageType="active" name="Activity_InterestingMoment_cnt"/>
            <MiningField usageType="active" name="Activity_OpenEmail_cnt"/>
            <MiningField usageType="active" name="Activity_EmailBncedSft_cnt"/>
            <MiningField usageType="active" name="Activity_FillOutForm_cnt"/>
            <MiningField usageType="active" name="Activity_UnsubscrbEmail_cnt"/>
            <MiningField usageType="active" name="Activity_ClickEmail_cnt"/>
            <MiningField usageType="active" name="CloudTechnologies_CloudService_One"/>
            <MiningField usageType="active" name="CloudTechnologies_CloudService_Two"/>
            <MiningField usageType="active" name="CloudTechnologies_CommTech_One"/>
            <MiningField usageType="active" name="CloudTechnologies_CommTech_Two"/>
            <MiningField usageType="active" name="CloudTechnologies_CRM_One"/>
            <MiningField usageType="active" name="CloudTechnologies_CRM_Two"/>
            <MiningField usageType="active" name="CloudTechnologies_EnterpriseApplications_One"/>
            <MiningField usageType="active" name="CloudTechnologies_EnterpriseApplications_Two"/>
            <MiningField usageType="active" name="CloudTechnologies_EnterpriseContent_One"/>
            <MiningField usageType="active" name="CloudTechnologies_EnterpriseContent_Two"/>
            <MiningField usageType="active" name="CloudTechnologies_HardwareBasic_One"/>
            <MiningField usageType="active" name="CloudTechnologies_HardwareBasic_Two"/>
            <MiningField usageType="active" name="CloudTechnologies_ITGovernance_One"/>
            <MiningField usageType="active" name="CloudTechnologies_ITGovernance_Two"/>
            <MiningField usageType="active" name="CloudTechnologies_MarketingPerfMgmt_One"/>
            <MiningField usageType="active" name="CloudTechnologies_MarketingPerfMgmt_Two"/>
            <MiningField usageType="active" name="CloudTechnologies_ProductivitySltns_One"/>
            <MiningField usageType="active" name="CloudTechnologies_ProductivitySltns_Two"/>
            <MiningField usageType="active" name="CloudTechnologies_ProjectMgnt_One"/>
            <MiningField usageType="active" name="CloudTechnologies_ProjectMgnt_Two"/>
            <MiningField usageType="active" name="CloudTechnologies_SoftwareBasic_One"/>
            <MiningField usageType="active" name="CloudTechnologies_SoftwareBasic_Two"/>
            <MiningField usageType="active" name="x2NoTitle"/>
            <MiningField usageType="active" name="x2Assistant"/>
            <MiningField usageType="active" name="x2PartTime"/>
            <MiningField usageType="active" name="x2Technical"/>
            <MiningField usageType="active" name="x2Other"/>
            <MiningField usageType="active" name="x2Manager"/>
            <MiningField usageType="active" name="x2Sales"/>
            <MiningField usageType="active" name="x2HealthCare"/>
            <MiningField usageType="predicted" name="P1_Event"/>
          </MiningSchema>
          <Node recordCount="3858">
            <True/>
            <Node recordCount="3825">
              <SimplePredicate operator="lessOrEqual" field="BusinessRetirementParticipants" value="19867.0"/>
              <Node recordCount="3591">
                <SimplePredicate operator="lessOrEqual" field="BW_ns" value="1.5"/>
                <Node recordCount="3354">
                  <SimplePredicate operator="lessOrEqual" field="Activity_FillOutForm_cnt" value="1.5"/>
                  <Node recordCount="3332">
                    <SimplePredicate operator="lessOrEqual" field="Activity_ClickEmail_cnt" value="5.5"/>
                    <Node recordCount="343">
                      <SimplePredicate operator="lessOrEqual" field="Activity_ClickEmail_cnt" value="2.01086950302"/>
                      <Node recordCount="310">
                        <SimplePredicate operator="lessOrEqual" field="BW_ads" value="7.5"/>
                        <Node recordCount="39">
                          <SimplePredicate operator="lessOrEqual" field="BusinessUrlNumPages" value="86.5"/>
                          <Node recordCount="28">
                            <SimplePredicate operator="lessOrEqual" field="Alexa_ViewsPerMillion" value="174.290359497"/>
                            <ScoreDistribution value="1" recordCount="2.0"/>
                            <ScoreDistribution value="0" recordCount="39.0"/>
                          </Node>
                          <Node recordCount="11">
                            <SimplePredicate operator="greaterThan" field="Alexa_ViewsPerMillion" value="174.290359497"/>
                            <ScoreDistribution value="1" recordCount="6.0"/>
                            <ScoreDistribution value="0" recordCount="17.0"/>
                          </Node>
                        </Node>
                        <Node recordCount="271">
                          <SimplePredicate operator="greaterThan" field="BusinessUrlNumPages" value="86.5"/>
                          <Node recordCount="187">
                            <SimplePredicate operator="lessOrEqual" field="Alexa_ReachPerMillion" value="5297.80517578"/>
                            <ScoreDistribution value="1" recordCount="2.0"/>
                            <ScoreDistribution value="0" recordCount="289.0"/>
                          </Node>
                          <Node recordCount="84">
                            <SimplePredicate operator="greaterThan" field="Alexa_ReachPerMillion" value="5297.80517578"/>
                            <ScoreDistribution value="1" recordCount="4.0"/>
                            <ScoreDistribution value="0" recordCount="114.0"/>
                          </Node>
                        </Node>
                      </Node>
                      <Node recordCount="33">
                        <SimplePredicate operator="greaterThan" field="BW_ads" value="7.5"/>
                        <Node recordCount="22">
                          <SimplePredicate operator="lessOrEqual" field="BW_mx" value="0.5"/>
                          <ScoreDistribution value="1" recordCount="0.0"/>
                          <ScoreDistribution value="0" recordCount="38.0"/>
                        </Node>
                        <Node recordCount="11">
                          <SimplePredicate operator="greaterThan" field="BW_mx" value="0.5"/>
                          <ScoreDistribution value="1" recordCount="7.0"/>
                          <ScoreDistribution value="0" recordCount="14.0"/>
                        </Node>
                      </Node>
                    </Node>
                    <Node recordCount="2989">
                      <SimplePredicate operator="greaterThan" field="Activity_ClickEmail_cnt" value="2.01086950302"/>
                      <Node recordCount="1188">
                        <SimplePredicate operator="lessOrEqual" field="BusinessUrlNumPages" value="1172.0"/>
                        <Node recordCount="1160">
                          <SimplePredicate operator="lessOrEqual" field="Activity_InterestingMoment_cnt" value="4.5"/>
                          <Node recordCount="205">
                            <SimplePredicate operator="lessOrEqual" field="AnnualRevenue" value="10208499712.0"/>
                            <ScoreDistribution value="1" recordCount="23.0"/>
                            <ScoreDistribution value="0" recordCount="293.0"/>
                          </Node>
                          <Node recordCount="955">
                            <SimplePredicate operator="greaterThan" field="AnnualRevenue" value="10208499712.0"/>
                            <ScoreDistribution value="1" recordCount="39.0"/>
                            <ScoreDistribution value="0" recordCount="1450.0"/>
                          </Node>
                        </Node>
                        <Node recordCount="28">
                          <SimplePredicate operator="greaterThan" field="Activity_InterestingMoment_cnt" value="4.5"/>
                          <Node recordCount="16">
                            <SimplePredicate operator="lessOrEqual" field="CloudTechnologies_CommTech_Two" value="0.5"/>
                            <ScoreDistribution value="1" recordCount="9.0"/>
                            <ScoreDistribution value="0" recordCount="16.0"/>
                          </Node>
                          <Node recordCount="12">
                            <SimplePredicate operator="greaterThan" field="CloudTechnologies_CommTech_Two" value="0.5"/>
                            <ScoreDistribution value="1" recordCount="2.0"/>
                            <ScoreDistribution value="0" recordCount="18.0"/>
                          </Node>
                        </Node>
                      </Node>
                      <Node recordCount="1801">
                        <SimplePredicate operator="greaterThan" field="BusinessUrlNumPages" value="1172.0"/>
                        <Node recordCount="10">
                          <SimplePredicate operator="lessOrEqual" field="PD_DA_MonthsSinceFundAwardDate" value="47.5"/>
                          <ScoreDistribution value="1" recordCount="3.0"/>
                          <ScoreDistribution value="0" recordCount="14.0"/>
                        </Node>
                        <Node recordCount="1791">
                          <SimplePredicate operator="greaterThan" field="PD_DA_MonthsSinceFundAwardDate" value="47.5"/>
                          <Node recordCount="1492">
                            <SimplePredicate operator="lessOrEqual" field="Intelliscore" value="50.5"/>
                            <ScoreDistribution value="1" recordCount="26.0"/>
                            <ScoreDistribution value="0" recordCount="2280.0"/>
                          </Node>
                          <Node recordCount="299">
                            <SimplePredicate operator="greaterThan" field="Intelliscore" value="50.5"/>
                            <ScoreDistribution value="1" recordCount="0.0"/>
                            <ScoreDistribution value="0" recordCount="472.0"/>
                          </Node>
                        </Node>
                      </Node>
                    </Node>
                  </Node>
                  <Node recordCount="22">
                    <SimplePredicate operator="greaterThan" field="Activity_ClickEmail_cnt" value="5.5"/>
                    <ScoreDistribution value="1" recordCount="6.0"/>
                    <ScoreDistribution value="0" recordCount="25.0"/>
                  </Node>
                </Node>
                <Node recordCount="237">
                  <SimplePredicate operator="greaterThan" field="Activity_FillOutForm_cnt" value="1.5"/>
                  <Node recordCount="190">
                    <SimplePredicate operator="lessOrEqual" field="Activity_InterestingMoment_cnt" value="13.5"/>
                    <Node recordCount="119">
                      <SimplePredicate operator="lessOrEqual" field="BW_Web_Master" value="0.353159844875"/>
                      <Node recordCount="63">
                        <SimplePredicate operator="lessOrEqual" field="BW_ns" value="0.5"/>
                        <Node recordCount="53">
                          <SimplePredicate operator="lessOrEqual" field="BusinessEstablishedYear" value="2001.5"/>
                          <ScoreDistribution value="1" recordCount="0.0"/>
                          <ScoreDistribution value="0" recordCount="81.0"/>
                        </Node>
                        <Node recordCount="10">
                          <SimplePredicate operator="greaterThan" field="BusinessEstablishedYear" value="2001.5"/>
                          <ScoreDistribution value="1" recordCount="2.0"/>
                          <ScoreDistribution value="0" recordCount="11.0"/>
                        </Node>
                      </Node>
                      <Node recordCount="56">
                        <SimplePredicate operator="greaterThan" field="BW_ns" value="0.5"/>
                        <ScoreDistribution value="1" recordCount="0.0"/>
                        <ScoreDistribution value="0" recordCount="84.0"/>
                      </Node>
                    </Node>
                    <Node recordCount="71">
                      <SimplePredicate operator="greaterThan" field="BW_Web_Master" value="0.353159844875"/>
                      <Node recordCount="44">
                        <SimplePredicate operator="lessOrEqual" field="BW_Web_Master" value="1.5"/>
                        <Node recordCount="22">
                          <SimplePredicate operator="lessOrEqual" field="BW_encoding" value="1.14684009552"/>
                          <ScoreDistribution value="1" recordCount="2.0"/>
                          <ScoreDistribution value="0" recordCount="32.0"/>
                        </Node>
                        <Node recordCount="22">
                          <SimplePredicate operator="greaterThan" field="BW_encoding" value="1.14684009552"/>
                          <ScoreDistribution value="1" recordCount="8.0"/>
                          <ScoreDistribution value="0" recordCount="21.0"/>
                        </Node>
                      </Node>
                      <Node recordCount="27">
                        <SimplePredicate operator="greaterThan" field="BW_Web_Master" value="1.5"/>
                        <ScoreDistribution value="1" recordCount="0.0"/>
                        <ScoreDistribution value="0" recordCount="43.0"/>
                      </Node>
                    </Node>
                  </Node>
                  <Node recordCount="47">
                    <SimplePredicate operator="greaterThan" field="Activity_InterestingMoment_cnt" value="13.5"/>
                    <Node recordCount="13">
                      <SimplePredicate operator="lessOrEqual" field="Activity_FillOutForm_cnt" value="3.5"/>
                      <ScoreDistribution value="1" recordCount="8.0"/>
                      <ScoreDistribution value="0" recordCount="11.0"/>
                    </Node>
                    <Node recordCount="34">
                      <SimplePredicate operator="greaterThan" field="Activity_FillOutForm_cnt" value="3.5"/>
                      <Node recordCount="12">
                        <SimplePredicate operator="lessOrEqual" field="Activity_InterestingMoment_cnt" value="17.5"/>
                        <ScoreDistribution value="1" recordCount="2.0"/>
                        <ScoreDistribution value="0" recordCount="18.0"/>
                      </Node>
                      <Node recordCount="22">
                        <SimplePredicate operator="greaterThan" field="Activity_InterestingMoment_cnt" value="17.5"/>
                        <ScoreDistribution value="1" recordCount="0.0"/>
                        <ScoreDistribution value="0" recordCount="41.0"/>
                      </Node>
                    </Node>
                  </Node>
                </Node>
              </Node>
              <Node recordCount="234">
                <SimplePredicate operator="greaterThan" field="BW_ns" value="1.5"/>
                <Node recordCount="207">
                  <SimplePredicate operator="lessOrEqual" field="x2Technical" value="0.5"/>
                  <Node recordCount="192">
                    <SimplePredicate operator="lessOrEqual" field="BW_widgets" value="23.0"/>
                    <Node recordCount="17">
                      <SimplePredicate operator="lessOrEqual" field="BW_seo_headers" value="0.5"/>
                      <ScoreDistribution value="1" recordCount="3.0"/>
                      <ScoreDistribution value="0" recordCount="22.0"/>
                    </Node>
                    <Node recordCount="175">
                      <SimplePredicate operator="greaterThan" field="BW_seo_headers" value="0.5"/>
                      <Node recordCount="13">
                        <SimplePredicate operator="lessOrEqual" field="Alexa_ReachPerMillion" value="0.550000011921"/>
                        <ScoreDistribution value="1" recordCount="3.0"/>
                        <ScoreDistribution value="0" recordCount="18.0"/>
                      </Node>
                      <Node recordCount="162">
                        <SimplePredicate operator="greaterThan" field="Alexa_ReachPerMillion" value="0.550000011921"/>
                        <Node recordCount="104">
                          <SimplePredicate operator="lessOrEqual" field="Alexa_MonthsSinceOnline" value="231.5"/>
                          <ScoreDistribution value="1" recordCount="0.0"/>
                          <ScoreDistribution value="0" recordCount="172.0"/>
                        </Node>
                        <Node recordCount="58">
                          <SimplePredicate operator="greaterThan" field="Alexa_MonthsSinceOnline" value="231.5"/>
                          <Node recordCount="28">
                            <SimplePredicate operator="lessOrEqual" field="Alexa_ViewsPerMillion" value="6.34500026703"/>
                            <ScoreDistribution value="1" recordCount="0.0"/>
                            <ScoreDistribution value="0" recordCount="45.0"/>
                          </Node>
                          <Node recordCount="30">
                            <SimplePredicate operator="greaterThan" field="Alexa_ViewsPerMillion" value="6.34500026703"/>
                            <ScoreDistribution value="1" recordCount="2.0"/>
                            <ScoreDistribution value="0" recordCount="40.0"/>
                          </Node>
                        </Node>
                      </Node>
                    </Node>
                  </Node>
                  <Node recordCount="15">
                    <SimplePredicate operator="greaterThan" field="BW_widgets" value="23.0"/>
                    <ScoreDistribution value="1" recordCount="5.0"/>
                    <ScoreDistribution value="0" recordCount="22.0"/>
                  </Node>
                </Node>
                <Node recordCount="27">
                  <SimplePredicate operator="greaterThan" field="x2Technical" value="0.5"/>
                  <Node recordCount="15">
                    <SimplePredicate operator="lessOrEqual" field="Activity_OpenEmail_cnt" value="3.86507940292"/>
                    <ScoreDistribution value="1" recordCount="9.0"/>
                    <ScoreDistribution value="0" recordCount="19.0"/>
                  </Node>
                  <Node recordCount="12">
                    <SimplePredicate operator="greaterThan" field="Activity_OpenEmail_cnt" value="3.86507940292"/>
                    <ScoreDistribution value="1" recordCount="10.0"/>
                    <ScoreDistribution value="0" recordCount="10.0"/>
                  </Node>
                </Node>
              </Node>
            </Node>
            <Node recordCount="33">
              <SimplePredicate operator="greaterThan" field="BusinessRetirementParticipants" value="19867.0"/>
              <Node recordCount="11">
                <SimplePredicate operator="lessOrEqual" field="CloudTechnologies_ProjectMgnt_One" value="0.5"/>
                <ScoreDistribution value="1" recordCount="9.0"/>
                <ScoreDistribution value="0" recordCount="9.0"/>
              </Node>
              <Node recordCount="22">
                <SimplePredicate operator="greaterThan" field="CloudTechnologies_ProjectMgnt_One" value="0.5"/>
                <ScoreDistribution value="1" recordCount="0.0"/>
                <ScoreDistribution value="0" recordCount="30.0"/>
              </Node>
            </Node>
          </Node>
        </TreeModel>
      </Segment>
      <Segment>
        <True/>
        <TreeModel splitCharacteristic="binarySplit" functionName="classification">
          <MiningSchema>
            <MiningField usageType="active" name="BankruptcyFiled"/>
            <MiningField usageType="active" name="BusinessAnnualSalesAbs"/>
            <MiningField usageType="active" name="BusinessECommerceSite"/>
            <MiningField usageType="active" name="BusinessEstablishedYear"/>
            <MiningField usageType="active" name="BusinessEstimatedAnnualSales_k"/>
            <MiningField usageType="active" name="BusinessEstimatedEmployees"/>
            <MiningField usageType="active" name="BusinessFirmographicsParentEmployees"/>
            <MiningField usageType="active" name="BusinessFirmographicsParentRevenue"/>
            <MiningField usageType="active" name="BusinessRetirementParticipants"/>
            <MiningField usageType="active" name="BusinessSocialPresence"/>
            <MiningField usageType="active" name="BusinessUrlNumPages"/>
            <MiningField usageType="active" name="BusinessVCFunded"/>
            <MiningField usageType="active" name="DerogatoryIndicator"/>
            <MiningField usageType="active" name="ExperianCreditRating"/>
            <MiningField usageType="active" name="FundingAgency"/>
            <MiningField usageType="active" name="FundingAmount"/>
            <MiningField usageType="active" name="FundingAwardAmount"/>
            <MiningField usageType="active" name="FundingFinanceRound"/>
            <MiningField usageType="active" name="FundingReceived"/>
            <MiningField usageType="active" name="FundingStage"/>
            <MiningField usageType="active" name="Intelliscore"/>
            <MiningField usageType="active" name="JobsRecentJobs"/>
            <MiningField usageType="active" name="JobsTrendString"/>
            <MiningField usageType="active" name="ModelAction"/>
            <MiningField usageType="active" name="PercentileModel"/>
            <MiningField usageType="active" name="UCCFilings"/>
            <MiningField usageType="active" name="UCCFilingsPresent"/>
            <MiningField usageType="active" name="Years_in_Business_Code"/>
            <MiningField usageType="active" name="Non_Profit_Indicator"/>
            <MiningField usageType="active" name="PD_DA_AwardCategory"/>
            <MiningField usageType="active" name="PD_DA_LastSocialActivity_Units"/>
            <MiningField usageType="active" name="PD_DA_MonthsPatentGranted"/>
            <MiningField usageType="active" name="PD_DA_MonthsSinceFundAwardDate"/>
            <MiningField usageType="active" name="PD_DA_PrimarySIC1"/>
            <MiningField usageType="active" name="AnnualRevenue"/>
            <MiningField usageType="active" name="NumberOfEmployees"/>
            <MiningField usageType="active" name="Alexa_MonthsSinceOnline"/>
            <MiningField usageType="active" name="Alexa_Rank"/>
            <MiningField usageType="active" name="Alexa_ReachPerMillion"/>
            <MiningField usageType="active" name="Alexa_ViewsPerMillion"/>
            <MiningField usageType="active" name="Alexa_ViewsPerUser"/>
            <MiningField usageType="active" name="BW_TechTags_Cnt"/>
            <MiningField usageType="active" name="BW_TotalTech_Cnt"/>
            <MiningField usageType="active" name="BW_ads"/>
            <MiningField usageType="active" name="BW_analytics"/>
            <MiningField usageType="active" name="BW_cdn"/>
            <MiningField usageType="active" name="BW_cdns"/>
            <MiningField usageType="active" name="BW_cms"/>
            <MiningField usageType="active" name="BW_docinfo"/>
            <MiningField usageType="active" name="BW_encoding"/>
            <MiningField usageType="active" name="BW_feeds"/>
            <MiningField usageType="active" name="BW_framework"/>
            <MiningField usageType="active" name="BW_hosting"/>
            <MiningField usageType="active" name="BW_javascript"/>
            <MiningField usageType="active" name="BW_mapping"/>
            <MiningField usageType="active" name="BW_media"/>
            <MiningField usageType="active" name="BW_mx"/>
            <MiningField usageType="active" name="BW_ns"/>
            <MiningField usageType="active" name="BW_parked"/>
            <MiningField usageType="active" name="BW_payment"/>
            <MiningField usageType="active" name="BW_seo_headers"/>
            <MiningField usageType="active" name="BW_seo_meta"/>
            <MiningField usageType="active" name="BW_seo_title"/>
            <MiningField usageType="active" name="BW_Server"/>
            <MiningField usageType="active" name="BW_shop"/>
            <MiningField usageType="active" name="BW_ssl"/>
            <MiningField usageType="active" name="BW_Web_Master"/>
            <MiningField usageType="active" name="BW_Web_Server"/>
            <MiningField usageType="active" name="BW_widgets"/>
            <MiningField usageType="active" name="Activity_ClickLink_cnt"/>
            <MiningField usageType="active" name="Activity_VisitWeb_cnt"/>
            <MiningField usageType="active" name="Activity_InterestingMoment_cnt"/>
            <MiningField usageType="active" name="Activity_OpenEmail_cnt"/>
            <MiningField usageType="active" name="Activity_EmailBncedSft_cnt"/>
            <MiningField usageType="active" name="Activity_FillOutForm_cnt"/>
            <MiningField usageType="active" name="Activity_UnsubscrbEmail_cnt"/>
            <MiningField usageType="active" name="Activity_ClickEmail_cnt"/>
            <MiningField usageType="active" name="CloudTechnologies_CloudService_One"/>
            <MiningField usageType="active" name="CloudTechnologies_CloudService_Two"/>
            <MiningField usageType="active" name="CloudTechnologies_CommTech_One"/>
            <MiningField usageType="active" name="CloudTechnologies_CommTech_Two"/>
            <MiningField usageType="active" name="CloudTechnologies_CRM_One"/>
            <MiningField usageType="active" name="CloudTechnologies_CRM_Two"/>
            <MiningField usageType="active" name="CloudTechnologies_EnterpriseApplications_One"/>
            <MiningField usageType="active" name="CloudTechnologies_EnterpriseApplications_Two"/>
            <MiningField usageType="active" name="CloudTechnologies_EnterpriseContent_One"/>
            <MiningField usageType="active" name="CloudTechnologies_EnterpriseContent_Two"/>
            <MiningField usageType="active" name="CloudTechnologies_HardwareBasic_One"/>
            <MiningField usageType="active" name="CloudTechnologies_HardwareBasic_Two"/>
            <MiningField usageType="active" name="CloudTechnologies_ITGovernance_One"/>
            <MiningField usageType="active" name="CloudTechnologies_ITGovernance_Two"/>
            <MiningField usageType="active" name="CloudTechnologies_MarketingPerfMgmt_One"/>
            <MiningField usageType="active" name="CloudTechnologies_MarketingPerfMgmt_Two"/>
            <MiningField usageType="active" name="CloudTechnologies_ProductivitySltns_One"/>
            <MiningField usageType="active" name="CloudTechnologies_ProductivitySltns_Two"/>
            <MiningField usageType="active" name="CloudTechnologies_ProjectMgnt_One"/>
            <MiningField usageType="active" name="CloudTechnologies_ProjectMgnt_Two"/>
            <MiningField usageType="active" name="CloudTechnologies_SoftwareBasic_One"/>
            <MiningField usageType="active" name="CloudTechnologies_SoftwareBasic_Two"/>
            <MiningField usageType="active" name="x2NoTitle"/>
            <MiningField usageType="active" name="x2Assistant"/>
            <MiningField usageType="active" name="x2PartTime"/>
            <MiningField usageType="active" name="x2Technical"/>
            <MiningField usageType="active" name="x2Other"/>
            <MiningField usageType="active" name="x2Manager"/>
            <MiningField usageType="active" name="x2Sales"/>
            <MiningField usageType="active" name="x2HealthCare"/>
            <MiningField usageType="predicted" name="P1_Event"/>
          </MiningSchema>
          <Node recordCount="3774">
            <True/>
            <Node recordCount="3564">
              <SimplePredicate operator="lessOrEqual" field="BusinessEstablishedYear" value="2006.5"/>
              <Node recordCount="1815">
                <SimplePredicate operator="lessOrEqual" field="BusinessEstimatedEmployees" value="2450.0"/>
                <Node recordCount="1798">
                  <SimplePredicate operator="lessOrEqual" field="x2PartTime" value="0.5"/>
                  <Node recordCount="1427">
                    <SimplePredicate operator="lessOrEqual" field="Activity_OpenEmail_cnt" value="4.86507940292"/>
                    <Node recordCount="1373">
                      <SimplePredicate operator="lessOrEqual" field="Activity_FillOutForm_cnt" value="1.5"/>
                      <Node recordCount="278">
                        <SimplePredicate operator="lessOrEqual" field="BusinessUrlNumPages" value="152.5"/>
                        <Node recordCount="195">
                          <SimplePredicate operator="lessOrEqual" field="Years_in_Business_Code" value="731736512.0"/>
                          <Node recordCount="156">
                            <SimplePredicate operator="lessOrEqual" field="BusinessFirmographicsParentRevenue" value="3902301.25"/>
                            <ScoreDistribution value="1" recordCount="3.0"/>
                            <ScoreDistribution value="0" recordCount="252.0"/>
                          </Node>
                          <Node recordCount="39">
                            <SimplePredicate operator="greaterThan" field="BusinessFirmographicsParentRevenue" value="3902301.25"/>
                            <ScoreDistribution value="1" recordCount="4.0"/>
                            <ScoreDistribution value="0" recordCount="55.0"/>
                          </Node>
                        </Node>
                        <Node recordCount="83">
                          <SimplePredicate operator="greaterThan" field="Years_in_Business_Code" value="731736512.0"/>
                          <Node recordCount="65">
                            <SimplePredicate operator="lessOrEqual" field="BW_mapping" value="0.641263961792"/>
                            <ScoreDistribution value="1" recordCount="1.0"/>
                            <ScoreDistribution value="0" recordCount="95.0"/>
                          </Node>
                          <Node recordCount="18">
                            <SimplePredicate operator="greaterThan" field="BW_mapping" value="0.641263961792"/>
                            <ScoreDistribution value="1" recordCount="13.0"/>
                            <ScoreDistribution value="0" recordCount="13.0"/>
                          </Node>
                        </Node>
                      </Node>
                      <Node recordCount="1095">
                        <SimplePredicate operator="greaterThan" field="BusinessUrlNumPages" value="152.5"/>
                        <Node recordCount="27">
                          <SimplePredicate operator="lessOrEqual" field="PD_DA_MonthsPatentGranted" value="15.5"/>
                          <Node recordCount="12">
                            <SimplePredicate operator="lessOrEqual" field="BW_encoding" value="1.5"/>
                            <ScoreDistribution value="1" recordCount="4.0"/>
                            <ScoreDistribution value="0" recordCount="13.0"/>
                          </Node>
                          <Node recordCount="15">
                            <SimplePredicate operator="greaterThan" field="BW_encoding" value="1.5"/>
                            <ScoreDistribution value="1" recordCount="0.0"/>
                            <ScoreDistribution value="0" recordCount="27.0"/>
                          </Node>
                        </Node>
                        <Node recordCount="1068">
                          <SimplePredicate operator="greaterThan" field="PD_DA_MonthsPatentGranted" value="15.5"/>
                          <Node recordCount="1057">
                            <SimplePredicate operator="lessOrEqual" field="BusinessUrlNumPages" value="16986.5"/>
                            <ScoreDistribution value="1" recordCount="20.0"/>
                            <ScoreDistribution value="0" recordCount="1644.0"/>
                          </Node>
                          <Node recordCount="11">
                            <SimplePredicate operator="greaterThan" field="BusinessUrlNumPages" value="16986.5"/>
                            <ScoreDistribution value="1" recordCount="3.0"/>
                            <ScoreDistribution value="0" recordCount="18.0"/>
                          </Node>
                        </Node>
                      </Node>
                    </Node>
                    <Node recordCount="54">
                      <SimplePredicate operator="greaterThan" field="Activity_FillOutForm_cnt" value="1.5"/>
                      <Node recordCount="36">
                        <SimplePredicate operator="lessOrEqual" field="Intelliscore" value="53.5"/>
                        <Node recordCount="10">
                          <SimplePredicate operator="lessOrEqual" field="BusinessUrlNumPages" value="129.5"/>
                          <ScoreDistribution value="1" recordCount="1.0"/>
                          <ScoreDistribution value="0" recordCount="13.0"/>
                        </Node>
                        <Node recordCount="26">
                          <SimplePredicate operator="greaterThan" field="BusinessUrlNumPages" value="129.5"/>
                          <ScoreDistribution value="1" recordCount="0.0"/>
                          <ScoreDistribution value="0" recordCount="48.0"/>
                        </Node>
                      </Node>
                      <Node recordCount="18">
                        <SimplePredicate operator="greaterThan" field="Intelliscore" value="53.5"/>
                        <ScoreDistribution value="1" recordCount="8.0"/>
                        <ScoreDistribution value="0" recordCount="16.0"/>
                      </Node>
                    </Node>
                  </Node>
                  <Node recordCount="371">
                    <SimplePredicate operator="greaterThan" field="Activity_OpenEmail_cnt" value="4.86507940292"/>
                    <Node recordCount="250">
                      <SimplePredicate operator="lessOrEqual" field="BusinessSocialPresence" value="1102686208.0"/>
                      <Node recordCount="17">
                        <SimplePredicate operator="lessOrEqual" field="BW_docinfo" value="4.5"/>
                        <ScoreDistribution value="1" recordCount="7.0"/>
                        <ScoreDistribution value="0" recordCount="15.0"/>
                      </Node>
                      <Node recordCount="233">
                        <SimplePredicate operator="greaterThan" field="BW_docinfo" value="4.5"/>
                        <Node recordCount="74">
                          <SimplePredicate operator="lessOrEqual" field="BW_ssl" value="0.5"/>
                          <Node recordCount="29">
                            <SimplePredicate operator="lessOrEqual" field="DerogatoryIndicator" value="83.5"/>
                            <ScoreDistribution value="1" recordCount="2.0"/>
                            <ScoreDistribution value="0" recordCount="48.0"/>
                          </Node>
                          <Node recordCount="45">
                            <SimplePredicate operator="greaterThan" field="DerogatoryIndicator" value="83.5"/>
                            <ScoreDistribution value="1" recordCount="0.0"/>
                            <ScoreDistribution value="0" recordCount="73.0"/>
                          </Node>
                        </Node>
                        <Node recordCount="159">
                          <SimplePredicate operator="greaterThan" field="BW_ssl" value="0.5"/>
                          <Node recordCount="78">
                            <SimplePredicate operator="lessOrEqual" field="BW_ssl" value="1.32342004776"/>
                            <ScoreDistribution value="1" recordCount="30.0"/>
                            <ScoreDistribution value="0" recordCount="100.0"/>
                          </Node>
                          <Node recordCount="81">
                            <SimplePredicate operator="greaterThan" field="BW_ssl" value="1.32342004776"/>
                            <ScoreDistribution value="1" recordCount="4.0"/>
                            <ScoreDistribution value="0" recordCount="126.0"/>
                          </Node>
                        </Node>
                      </Node>
                    </Node>
                    <Node recordCount="121">
                      <SimplePredicate operator="greaterThan" field="BusinessSocialPresence" value="1102686208.0"/>
                      <Node recordCount="30">
                        <SimplePredicate operator="lessOrEqual" field="BW_TotalTech_Cnt" value="22.5"/>
                        <Node recordCount="13">
                          <SimplePredicate operator="lessOrEqual" field="Alexa_ViewsPerMillion" value="168.380355835"/>
                          <ScoreDistribution value="1" recordCount="1.0"/>
                          <ScoreDistribution value="0" recordCount="18.0"/>
                        </Node>
                        <Node recordCount="17">
                          <SimplePredicate operator="greaterThan" field="Alexa_ViewsPerMillion" value="168.380355835"/>
                          <ScoreDistribution value="1" recordCount="2.0"/>
                          <ScoreDistribution value="0" recordCount="25.0"/>
                        </Node>
                      </Node>
                      <Node recordCount="91">
                        <SimplePredicate operator="greaterThan" field="BW_TotalTech_Cnt" value="22.5"/>
                        <ScoreDistribution value="1" recordCount="0.0"/>
                        <ScoreDistribution value="0" recordCount="126.0"/>
                      </Node>
                    </Node>
                  </Node>
                </Node>
                <Node recordCount="17">
                  <SimplePredicate operator="greaterThan" field="x2PartTime" value="0.5"/>
                  <ScoreDistribution value="1" recordCount="5.0"/>
                  <ScoreDistribution value="0" recordCount="20.0"/>
                </Node>
              </Node>
              <Node recordCount="1749">
                <SimplePredicate operator="greaterThan" field="BusinessEstimatedEmployees" value="2450.0"/>
                <Node recordCount="194">
                  <SimplePredicate operator="lessOrEqual" field="AnnualRevenue" value="10276499456.0"/>
                  <Node recordCount="109">
                    <SimplePredicate operator="lessOrEqual" field="BW_hosting" value="1.47769522667"/>
                    <Node recordCount="96">
                      <SimplePredicate operator="lessOrEqual" field="BW_TotalTech_Cnt" value="71.0"/>
                      <Node recordCount="11">
                        <SimplePredicate operator="lessOrEqual" field="Alexa_ViewsPerUser" value="1.99500000477"/>
                        <ScoreDistribution value="1" recordCount="4.0"/>
                        <ScoreDistribution value="0" recordCount="14.0"/>
                      </Node>
                      <Node recordCount="85">
                        <SimplePredicate operator="greaterThan" field="Alexa_ViewsPerUser" value="1.99500000477"/>
                        <Node recordCount="69">
                          <SimplePredicate operator="lessOrEqual" field="BW_javascript" value="8.5"/>
                          <ScoreDistribution value="1" recordCount="0.0"/>
                          <ScoreDistribution value="0" recordCount="114.0"/>
                        </Node>
                        <Node recordCount="16">
                          <SimplePredicate operator="greaterThan" field="BW_javascript" value="8.5"/>
                          <ScoreDistribution value="1" recordCount="4.0"/>
                          <ScoreDistribution value="0" recordCount="23.0"/>
                        </Node>
                      </Node>
                    </Node>
                    <Node recordCount="13">
                      <SimplePredicate operator="greaterThan" field="BW_TotalTech_Cnt" value="71.0"/>
                      <ScoreDistribution value="1" recordCount="7.0"/>
                      <ScoreDistribution value="0" recordCount="11.0"/>
                    </Node>
                  </Node>
                  <Node recordCount="85">
                    <SimplePredicate operator="greaterThan" field="BW_hosting" value="1.47769522667"/>
                    <Node recordCount="10">
                      <SimplePredicate operator="lessOrEqual" field="NumberOfEmployees" value="1396.5"/>
                      <ScoreDistribution value="1" recordCount="1.0"/>
                      <ScoreDistribution value="0" recordCount="11.0"/>
                    </Node>
                    <Node recordCount="75">
                      <SimplePredicate operator="greaterThan" field="NumberOfEmployees" value="1396.5"/>
                      <Node recordCount="10">
                        <SimplePredicate operator="lessOrEqual" field="Alexa_Rank" value="7197.0"/>
                        <ScoreDistribution value="1" recordCount="1.0"/>
                        <ScoreDistribution value="0" recordCount="10.0"/>
                      </Node>
                      <Node recordCount="65">
                        <SimplePredicate operator="greaterThan" field="Alexa_Rank" value="7197.0"/>
                        <ScoreDistribution value="1" recordCount="0.0"/>
                        <ScoreDistribution value="0" recordCount="113.0"/>
                      </Node>
                    </Node>
                  </Node>
                </Node>
                <Node recordCount="1555">
                  <SimplePredicate operator="greaterThan" field="AnnualRevenue" value="10276499456.0"/>
                  <Node recordCount="1516">
                    <SimplePredicate operator="lessOrEqual" field="BusinessEstimatedAnnualSales_k" value="22562000.0"/>
                    <Node recordCount="1357">
                      <SimplePredicate operator="lessOrEqual" field="Activity_InterestingMoment_cnt" value="4.5"/>
                      <Node recordCount="1238">
                        <SimplePredicate operator="lessOrEqual" field="JobsTrendString" value="1538483072.0"/>
                        <Node recordCount="35">
                          <SimplePredicate operator="lessOrEqual" field="Activity_VisitWeb_cnt" value="2.5"/>
                          <Node recordCount="22">
                            <SimplePredicate operator="lessOrEqual" field="BW_cms" value="0.5"/>
                            <ScoreDistribution value="1" recordCount="0.0"/>
                            <ScoreDistribution value="0" recordCount="37.0"/>
                          </Node>
                          <Node recordCount="13">
                            <SimplePredicate operator="greaterThan" field="BW_cms" value="0.5"/>
                            <ScoreDistribution value="1" recordCount="2.0"/>
                            <ScoreDistribution value="0" recordCount="20.0"/>
                          </Node>
                        </Node>
                        <Node recordCount="1203">
                          <SimplePredicate operator="greaterThan" field="Activity_VisitWeb_cnt" value="2.5"/>
                          <Node recordCount="270">
                            <SimplePredicate operator="lessOrEqual" field="BW_widgets" value="0.5"/>
                            <ScoreDistribution value="1" recordCount="4.0"/>
                            <ScoreDistribution value="0" recordCount="434.0"/>
                          </Node>
                          <Node recordCount="933">
                            <SimplePredicate operator="greaterThan" field="BW_widgets" value="0.5"/>
                            <ScoreDistribution value="1" recordCount="2.0"/>
                            <ScoreDistribution value="0" recordCount="1461.0"/>
                          </Node>
                        </Node>
                      </Node>
                      <Node recordCount="119">
                        <SimplePredicate operator="greaterThan" field="JobsTrendString" value="1538483072.0"/>
                        <Node recordCount="100">
                          <SimplePredicate operator="lessOrEqual" field="CloudTechnologies_ITGovernance_One" value="1.5"/>
                          <Node recordCount="35">
                            <SimplePredicate operator="lessOrEqual" field="BW_cms" value="0.5"/>
                            <ScoreDistribution value="1" recordCount="1.0"/>
                            <ScoreDistribution value="0" recordCount="56.0"/>
                          </Node>
                          <Node recordCount="65">
                            <SimplePredicate operator="greaterThan" field="BW_cms" value="0.5"/>
                            <ScoreDistribution value="1" recordCount="0.0"/>
                            <ScoreDistribution value="0" recordCount="117.0"/>
                          </Node>
                        </Node>
                        <Node recordCount="19">
                          <SimplePredicate operator="greaterThan" field="CloudTechnologies_ITGovernance_One" value="1.5"/>
                          <ScoreDistribution value="1" recordCount="3.0"/>
                          <ScoreDistribution value="0" recordCount="23.0"/>
                        </Node>
                      </Node>
                    </Node>
                    <Node recordCount="159">
                      <SimplePredicate operator="greaterThan" field="Activity_InterestingMoment_cnt" value="4.5"/>
                      <Node recordCount="121">
                        <SimplePredicate operator="lessOrEqual" field="BW_shop" value="0.0817843899131"/>
                        <Node recordCount="10">
                          <SimplePredicate operator="lessOrEqual" field="CloudTechnologies_SoftwareBasic_Two" value="2.5"/>
                          <ScoreDistribution value="1" recordCount="2.0"/>
                          <ScoreDistribution value="0" recordCount="14.0"/>
                        </Node>
                        <Node recordCount="111">
                          <SimplePredicate operator="greaterThan" field="CloudTechnologies_SoftwareBasic_Two" value="2.5"/>
                          <Node recordCount="101">
                            <SimplePredicate operator="lessOrEqual" field="Activity_ClickEmail_cnt" value="7.5"/>
                            <ScoreDistribution value="1" recordCount="0.0"/>
                            <ScoreDistribution value="0" recordCount="173.0"/>
                          </Node>
                          <Node recordCount="10">
                            <SimplePredicate operator="greaterThan" field="Activity_ClickEmail_cnt" value="7.5"/>
                            <ScoreDistribution value="1" recordCount="1.0"/>
                            <ScoreDistribution value="0" recordCount="16.0"/>
                          </Node>
